%YAML:1.0
---
opencv_ml_svm:
   format: 3
   svmType: C_SVC
   kernel:
      type: RBF
      gamma: 1.0000000000000001e-05
   C: 2.5000000000000000e+00
   term_criteria: { epsilon:1.1920928955078125e-07, iterations:1000 }
   var_count: 256
   class_count: 10
   class_labels: !!opencv-matrix
      rows: 10
      cols: 1
      dt: i
      data: [ 0, 1, 2, 3, 4, 5, 6, 7, 8, 9 ]
   sv_total: 621
   support_vectors:
      - [ 0., 0., 0., 0., 0., 200., 255., 255., 255., 255., 0., 0., 0.,
          0., 0., 0., 0., 0., 0., 0., 0., 255., 255., 255., 255., 255.,
          255., 0., 0., 0., 0., 0., 0., 0., 0., 0., 0., 255., 46., 64.,
          128., 255., 255., 0., 0., 0., 0., 0., 0., 0., 0., 0., 0., 255.,
          0., 0., 0., 255., 255., 0., 0., 0., 0., 0., 0., 0., 0., 0., 0.,
          255., 0., 0., 0., 255., 255., 0., 0., 0., 0., 0., 0., 0., 0.,
          0., 0., 255., 0., 0., 0., 255., 255., 0., 0., 0., 0., 0., 0.,
          0., 0., 0., 237., 255., 0., 0., 0., 255., 255., 0., 0., 0., 0.,
          0., 0., 0., 0., 0., 0., 55., 0., 0., 0., 255., 237., 0., 0.,
          0., 0., 0., 0., 0., 0., 0., 246., 155., 0., 0., 0., 255., 255.,
          0., 0., 0., 0., 0., 0., 0., 0., 0., 255., 255., 0., 0., 0.,
          255., 255., 0., 0., 0., 0., 0., 0., 0., 0., 0., 255., 255., 0.,
          0., 0., 255., 237., 0., 0., 0., 0., 0., 0., 0., 0., 0., 255.,
          255., 0., 0., 0., 255., 237., 0., 0., 0., 0., 0., 0., 0., 0.,
          0., 255., 255., 0., 0., 0., 255., 0., 0., 0., 0., 0., 0., 0.,
          0., 0., 0., 255., 255., 0., 0., 0., 255., 0., 0., 0., 0., 0.,
          0., 0., 0., 0., 0., 255., 255., 255., 255., 255., 255., 0., 0.,
          0., 0., 0., 0., 0., 0., 0., 0., 0., 255., 255., 255., 255.,
          255., 0., 0., 0., 0., 0., 0. ]
      - [ 0., 0., 0., 0., 0., 255., 255., 255., 255., 255., 0., 0., 0.,
          0., 0., 0., 0., 0., 0., 0., 0., 255., 255., 255., 255., 255.,
          255., 0., 0., 0., 0., 0., 0., 0., 0., 0., 0., 255., 128., 128.,
          128., 255., 255., 0., 0., 0., 0., 0., 0., 0., 0., 0., 0., 255.,
          0., 0., 0., 255., 255., 0., 0., 0., 0., 0., 0., 0., 0., 0., 0.,
          255., 0., 0., 0., 255., 255., 0., 0., 0., 0., 0., 0., 0., 0.,
          0., 0., 255., 0., 0., 0., 255., 255., 0., 0., 0., 0., 0., 0.,
          0., 0., 0., 128., 255., 0., 0., 0., 255., 255., 0., 0., 0., 0.,
          0., 0., 0., 0., 0., 0., 0., 0., 0., 0., 255., 0., 0., 0., 0.,
          0., 0., 0., 0., 0., 0., 255., 128., 0., 0., 0., 255., 255., 0.,
          0., 0., 0., 0., 0., 0., 0., 0., 255., 255., 0., 0., 0., 255.,
          255., 0., 0., 0., 0., 0., 0., 0., 0., 0., 255., 255., 0., 0.,
          0., 255., 128., 0., 0., 0., 0., 0., 0., 0., 0., 0., 255., 255.,
          0., 0., 0., 255., 0., 0., 0., 0., 0., 0., 0., 0., 0., 0., 255.,
          255., 0., 0., 0., 255., 0., 0., 0., 0., 0., 0., 0., 0., 0., 0.,
          255., 255., 0., 0., 0., 255., 0., 0., 0., 0., 0., 0., 0., 0.,
          0., 0., 255., 255., 255., 255., 255., 255., 0., 0., 0., 0., 0.,
          0., 0., 0., 0., 0., 0., 255., 255., 255., 255., 255., 0., 0.,
          0., 0., 0., 0. ]
      - [ 0., 0., 0., 0., 0., 0., 255., 255., 255., 255., 0., 0., 0., 0.,
          0., 0., 0., 0., 0., 0., 0., 255., 255., 255., 255., 255., 255.,
          0., 0., 0., 0., 0., 0., 0., 0., 0., 0., 255., 0., 0., 0., 255.,
          255., 0., 0., 0., 0., 0., 0., 0., 0., 0., 0., 255., 0., 0., 0.,
          255., 255., 0., 0., 0., 0., 0., 0., 0., 0., 0., 0., 255., 0.,
          0., 0., 255., 255., 0., 0., 0., 0., 0., 0., 0., 0., 0., 0.,
          255., 0., 0., 0., 255., 255., 0., 0., 0., 0., 0., 0., 0., 0.,
          0., 0., 255., 0., 0., 0., 255., 255., 0., 0., 0., 0., 0., 0.,
          0., 0., 0., 0., 0., 0., 0., 0., 54., 237., 0., 0., 0., 0., 0.,
          0., 0., 0., 0., 229., 53., 0., 0., 0., 249., 254., 0., 0., 0.,
          0., 0., 0., 0., 0., 0., 255., 255., 0., 0., 0., 255., 255., 0.,
          0., 0., 0., 0., 0., 0., 0., 0., 255., 255., 0., 0., 0., 255.,
          237., 0., 0., 0., 0., 0., 0., 0., 0., 0., 255., 255., 0., 0.,
          0., 255., 0., 0., 0., 0., 0., 0., 0., 0., 0., 0., 255., 255.,
          0., 0., 0., 255., 0., 0., 0., 0., 0., 0., 0., 0., 0., 0., 255.,
          255., 0., 0., 0., 255., 0., 0., 0., 0., 0., 0., 0., 0., 0., 0.,
          255., 255., 255., 255., 255., 255., 0., 0., 0., 0., 0., 0., 0.,
          0., 0., 0., 0., 255., 255., 255., 255., 255., 0., 0., 0., 0.,
          0., 0. ]
      - [ 0., 0., 0., 0., 0., 0., 255., 255., 255., 255., 0., 0., 0., 0.,
          0., 0., 0., 0., 0., 0., 0., 255., 255., 255., 255., 255., 255.,
          0., 0., 0., 0., 0., 0., 0., 0., 0., 0., 255., 0., 0., 0., 255.,
          255., 0., 0., 0., 0., 0., 0., 0., 0., 0., 0., 255., 0., 0., 0.,
          255., 255., 0., 0., 0., 0., 0., 0., 0., 0., 0., 0., 255., 0.,
          0., 0., 255., 255., 0., 0., 0., 0., 0., 0., 0., 0., 0., 0.,
          255., 0., 0., 0., 255., 255., 0., 0., 0., 0., 0., 0., 0., 0.,
          0., 0., 255., 0., 0., 0., 255., 255., 0., 0., 0., 0., 0., 0.,
          0., 0., 0., 0., 54., 0., 0., 0., 54., 237., 0., 0., 0., 0., 0.,
          0., 0., 0., 0., 237., 54., 0., 0., 0., 249., 237., 0., 0., 0.,
          0., 0., 0., 0., 0., 0., 255., 255., 0., 0., 0., 255., 255., 0.,
          0., 0., 0., 0., 0., 0., 0., 0., 255., 255., 0., 0., 0., 255.,
          237., 0., 0., 0., 0., 0., 0., 0., 0., 0., 255., 255., 0., 0.,
          0., 255., 0., 0., 0., 0., 0., 0., 0., 0., 0., 0., 255., 255.,
          0., 0., 0., 255., 0., 0., 0., 0., 0., 0., 0., 0., 0., 0., 255.,
          255., 0., 0., 0., 255., 0., 0., 0., 0., 0., 0., 0., 0., 0., 0.,
          255., 255., 255., 255., 255., 255., 0., 0., 0., 0., 0., 0., 0.,
          0., 0., 0., 0., 255., 255., 255., 255., 255., 0., 0., 0., 0.,
          0., 0. ]
      - [ 0., 0., 0., 0., 0., 200., 255., 255., 255., 255., 0., 0., 0.,
          0., 0., 0., 0., 0., 0., 0., 0., 255., 255., 255., 255., 255.,
          255., 0., 0., 0., 0., 0., 0., 0., 0., 0., 0., 255., 0., 167.,
          0., 255., 255., 0., 0., 0., 0., 0., 0., 0., 0., 0., 0., 255.,
          0., 0., 0., 255., 255., 0., 0., 0., 0., 0., 0., 0., 0., 0., 0.,
          255., 0., 0., 0., 255., 255., 0., 0., 0., 0., 0., 0., 0., 0.,
          0., 0., 255., 0., 0., 0., 255., 255., 0., 0., 0., 0., 0., 0.,
          0., 0., 0., 0., 255., 0., 0., 0., 255., 255., 0., 0., 0., 0.,
          0., 0., 0., 0., 0., 0., 54., 0., 0., 0., 54., 237., 0., 0., 0.,
          0., 0., 0., 0., 0., 0., 229., 54., 0., 0., 0., 249., 237., 0.,
          0., 0., 0., 0., 0., 0., 0., 0., 255., 255., 0., 0., 0., 255.,
          255., 0., 0., 0., 0., 0., 0., 0., 0., 0., 255., 255., 0., 0.,
          0., 255., 237., 0., 0., 0., 0., 0., 0., 0., 0., 0., 255., 255.,
          0., 0., 0., 255., 237., 0., 0., 0., 0., 0., 0., 0., 0., 0.,
          255., 255., 0., 0., 0., 255., 0., 0., 0., 0., 0., 0., 0., 0.,
          0., 0., 255., 255., 0., 0., 0., 255., 0., 0., 0., 0., 0., 0.,
          0., 0., 0., 0., 255., 255., 255., 255., 255., 255., 0., 0., 0.,
          0., 0., 0., 0., 0., 0., 0., 0., 255., 255., 255., 255., 255.,
          0., 0., 0., 0., 0., 0. ]
      - [ 0., 0., 0., 0., 0., 0., 255., 255., 255., 255., 0., 0., 0., 0.,
          0., 0., 0., 0., 0., 0., 0., 255., 255., 255., 255., 255., 255.,
          0., 0., 0., 0., 0., 0., 0., 0., 0., 0., 255., 0., 0., 0., 255.,
          255., 0., 0., 0., 0., 0., 0., 0., 0., 0., 0., 255., 0., 0., 0.,
          255., 255., 0., 0., 0., 0., 0., 0., 0., 0., 0., 0., 255., 0.,
          0., 0., 255., 255., 0., 0., 0., 0., 0., 0., 0., 0., 0., 0.,
          255., 0., 0., 0., 255., 255., 0., 0., 0., 0., 0., 0., 0., 0.,
          0., 0., 255., 0., 0., 0., 255., 255., 0., 0., 0., 0., 0., 0.,
          0., 0., 0., 0., 54., 0., 0., 0., 54., 237., 0., 0., 0., 0., 0.,
          0., 0., 0., 0., 104., 54., 0., 0., 0., 142., 245., 0., 0., 0.,
          0., 0., 0., 0., 0., 0., 255., 255., 0., 0., 0., 255., 255., 0.,
          0., 0., 0., 0., 0., 0., 0., 0., 255., 255., 0., 0., 0., 255.,
          237., 0., 0., 0., 0., 0., 0., 0., 0., 0., 255., 255., 0., 0.,
          0., 255., 222., 0., 0., 0., 0., 0., 0., 0., 0., 0., 255., 255.,
          0., 0., 0., 255., 0., 0., 0., 0., 0., 0., 0., 0., 0., 0., 255.,
          255., 0., 0., 0., 255., 0., 0., 0., 0., 0., 0., 0., 0., 0., 0.,
          255., 255., 255., 255., 255., 255., 0., 0., 0., 0., 0., 0., 0.,
          0., 0., 0., 0., 255., 255., 255., 255., 255., 0., 0., 0., 0.,
          0., 0. ]
      - [ 0., 0., 0., 0., 0., 255., 255., 255., 255., 255., 0., 0., 0.,
          0., 0., 0., 0., 0., 0., 0., 0., 255., 255., 255., 255., 255.,
          255., 0., 0., 0., 0., 0., 0., 0., 0., 0., 0., 255., 0., 0., 0.,
          255., 255., 0., 0., 0., 0., 0., 0., 0., 0., 0., 0., 255., 0.,
          0., 0., 255., 255., 0., 0., 0., 0., 0., 0., 0., 0., 0., 0.,
          255., 0., 0., 0., 255., 255., 0., 0., 0., 0., 0., 0., 0., 0.,
          0., 0., 255., 0., 0., 0., 255., 255., 0., 0., 0., 0., 0., 0.,
          0., 0., 0., 0., 255., 0., 0., 0., 255., 255., 0., 0., 0., 0.,
          0., 0., 0., 0., 0., 0., 0., 0., 0., 0., 255., 0., 0., 0., 0.,
          0., 0., 0., 0., 0., 0., 255., 128., 0., 0., 0., 255., 255., 0.,
          0., 0., 0., 0., 0., 0., 0., 0., 255., 255., 0., 0., 0., 255.,
          255., 0., 0., 0., 0., 0., 0., 0., 0., 0., 255., 255., 0., 0.,
          0., 255., 255., 0., 0., 0., 0., 0., 0., 0., 0., 0., 255., 255.,
          0., 0., 0., 255., 0., 0., 0., 0., 0., 0., 0., 0., 0., 0., 255.,
          255., 0., 0., 0., 255., 0., 0., 0., 0., 0., 0., 0., 0., 0., 0.,
          255., 255., 0., 0., 0., 255., 0., 0., 0., 0., 0., 0., 0., 0.,
          0., 0., 255., 255., 255., 255., 255., 255., 0., 0., 0., 0., 0.,
          0., 0., 0., 0., 0., 0., 255., 255., 255., 255., 255., 0., 0.,
          0., 0., 0., 0. ]
      - [ 0., 0., 0., 0., 0., 200., 255., 255., 255., 255., 0., 0., 0.,
          0., 0., 0., 0., 0., 0., 0., 0., 255., 255., 255., 255., 255.,
          255., 0., 0., 0., 0., 0., 0., 0., 0., 0., 0., 255., 0., 128.,
          128., 255., 255., 0., 0., 0., 0., 0., 0., 0., 0., 0., 0., 255.,
          0., 0., 0., 255., 255., 0., 0., 0., 0., 0., 0., 0., 0., 0., 0.,
          255., 0., 0., 0., 255., 255., 0., 0., 0., 0., 0., 0., 0., 0.,
          0., 0., 255., 0., 0., 0., 255., 255., 0., 0., 0., 0., 0., 0.,
          0., 0., 0., 0., 255., 0., 0., 0., 255., 255., 0., 0., 0., 0.,
          0., 0., 0., 0., 0., 0., 55., 0., 0., 0., 255., 237., 0., 0.,
          0., 0., 0., 0., 0., 0., 0., 246., 155., 0., 0., 0., 255., 255.,
          0., 0., 0., 0., 0., 0., 0., 0., 0., 255., 255., 0., 0., 0.,
          255., 255., 0., 0., 0., 0., 0., 0., 0., 0., 0., 255., 255., 0.,
          0., 0., 255., 246., 0., 0., 0., 0., 0., 0., 0., 0., 0., 255.,
          255., 0., 0., 0., 255., 237., 0., 0., 0., 0., 0., 0., 0., 0.,
          0., 255., 255., 0., 0., 0., 255., 0., 0., 0., 0., 0., 0., 0.,
          0., 0., 0., 255., 255., 0., 0., 0., 255., 0., 0., 0., 0., 0.,
          0., 0., 0., 0., 0., 255., 255., 255., 255., 255., 255., 0., 0.,
          0., 0., 0., 0., 0., 0., 0., 0., 0., 255., 255., 255., 255.,
          255., 0., 0., 0., 0., 0., 0. ]
      - [ 0., 0., 0., 0., 0., 200., 255., 255., 255., 255., 0., 0., 0.,
          0., 0., 0., 0., 0., 0., 0., 0., 255., 255., 255., 255., 255.,
          255., 0., 0., 0., 0., 0., 0., 0., 0., 0., 0., 255., 0., 128.,
          0., 255., 255., 0., 0., 0., 0., 0., 0., 0., 0., 0., 0., 255.,
          0., 0., 0., 255., 255., 0., 0., 0., 0., 0., 0., 0., 0., 0., 0.,
          255., 0., 0., 0., 255., 255., 0., 0., 0., 0., 0., 0., 0., 0.,
          0., 0., 255., 0., 0., 0., 255., 255., 0., 0., 0., 0., 0., 0.,
          0., 0., 0., 0., 255., 0., 0., 0., 255., 255., 0., 0., 0., 0.,
          0., 0., 0., 0., 0., 0., 55., 0., 0., 0., 55., 237., 0., 0., 0.,
          0., 0., 0., 0., 0., 0., 237., 55., 0., 0., 0., 255., 246., 0.,
          0., 0., 0., 0., 0., 0., 0., 0., 255., 255., 0., 0., 0., 255.,
          255., 0., 0., 0., 0., 0., 0., 0., 0., 0., 255., 255., 0., 0.,
          0., 255., 237., 0., 0., 0., 0., 0., 0., 0., 0., 0., 255., 255.,
          0., 0., 0., 255., 0., 0., 0., 0., 0., 0., 0., 0., 0., 0., 255.,
          255., 0., 0., 0., 255., 0., 0., 0., 0., 0., 0., 0., 0., 0., 0.,
          255., 255., 0., 0., 0., 255., 0., 0., 0., 0., 0., 0., 0., 0.,
          0., 0., 255., 255., 255., 255., 255., 255., 0., 0., 0., 0., 0.,
          0., 0., 0., 0., 0., 0., 255., 255., 255., 255., 255., 0., 0.,
          0., 0., 0., 0. ]
      - [ 0., 0., 0., 0., 0., 200., 255., 255., 255., 255., 0., 0., 0.,
          0., 0., 0., 0., 0., 0., 0., 0., 255., 255., 255., 255., 255.,
          255., 0., 0., 0., 0., 0., 0., 0., 0., 0., 0., 255., 0., 0.,
          82., 255., 255., 0., 0., 0., 0., 0., 0., 0., 0., 0., 0., 255.,
          0., 0., 0., 255., 255., 0., 0., 0., 0., 0., 0., 0., 0., 0., 0.,
          255., 0., 0., 0., 255., 255., 0., 0., 0., 0., 0., 0., 0., 0.,
          0., 0., 255., 0., 0., 0., 255., 255., 0., 0., 0., 0., 0., 0.,
          0., 0., 0., 0., 255., 0., 0., 0., 255., 255., 0., 0., 0., 0.,
          0., 0., 0., 0., 0., 0., 55., 0., 0., 0., 255., 237., 0., 0.,
          0., 0., 0., 0., 0., 0., 0., 246., 155., 0., 0., 0., 255., 255.,
          0., 0., 0., 0., 0., 0., 0., 0., 0., 255., 255., 0., 0., 0.,
          255., 255., 0., 0., 0., 0., 0., 0., 0., 0., 0., 255., 255., 0.,
          0., 0., 255., 246., 0., 0., 0., 0., 0., 0., 0., 0., 0., 255.,
          255., 0., 0., 0., 255., 237., 0., 0., 0., 0., 0., 0., 0., 0.,
          0., 255., 255., 0., 0., 0., 255., 0., 0., 0., 0., 0., 0., 0.,
          0., 0., 0., 255., 255., 0., 0., 0., 255., 0., 0., 0., 0., 0.,
          0., 0., 0., 0., 0., 255., 255., 255., 255., 255., 255., 0., 0.,
          0., 0., 0., 0., 0., 0., 0., 0., 0., 255., 255., 255., 255.,
          255., 0., 0., 0., 0., 0., 0. ]
      - [ 0., 0., 0., 0., 0., 255., 255., 255., 255., 255., 0., 0., 0.,
          0., 0., 0., 0., 0., 0., 0., 0., 255., 255., 255., 255., 255.,
          255., 0., 0., 0., 0., 0., 0., 0., 0., 0., 0., 255., 0., 128.,
          128., 255., 255., 0., 0., 0., 0., 0., 0., 0., 0., 0., 0., 255.,
          0., 0., 0., 255., 255., 0., 0., 0., 0., 0., 0., 0., 0., 0., 0.,
          255., 0., 0., 0., 255., 255., 0., 0., 0., 0., 0., 0., 0., 0.,
          0., 0., 255., 0., 0., 0., 255., 255., 0., 0., 0., 0., 0., 0.,
          0., 0., 0., 0., 255., 0., 0., 0., 255., 255., 0., 0., 0., 0.,
          0., 0., 0., 0., 0., 0., 0., 0., 0., 0., 255., 0., 0., 0., 0.,
          0., 0., 0., 0., 0., 0., 255., 128., 0., 0., 0., 255., 255., 0.,
          0., 0., 0., 0., 0., 0., 0., 0., 255., 255., 0., 0., 0., 255.,
          255., 0., 0., 0., 0., 0., 0., 0., 0., 0., 255., 255., 0., 0.,
          0., 255., 0., 0., 0., 0., 0., 0., 0., 0., 0., 0., 255., 255.,
          0., 0., 0., 255., 0., 0., 0., 0., 0., 0., 0., 0., 0., 0., 255.,
          255., 0., 0., 0., 255., 0., 0., 0., 0., 0., 0., 0., 0., 0., 0.,
          255., 255., 0., 0., 0., 255., 0., 0., 0., 0., 0., 0., 0., 0.,
          0., 0., 255., 255., 255., 255., 255., 255., 0., 0., 0., 0., 0.,
          0., 0., 0., 0., 0., 0., 255., 255., 255., 255., 255., 0., 0.,
          0., 0., 0., 0. ]
      - [ 0., 0., 0., 0., 0., 200., 255., 255., 255., 255., 0., 0., 0.,
          0., 0., 0., 0., 0., 0., 0., 0., 255., 255., 255., 255., 255.,
          255., 0., 0., 0., 0., 0., 0., 0., 0., 0., 0., 255., 0., 128.,
          128., 255., 255., 0., 0., 0., 0., 0., 0., 0., 0., 0., 0., 255.,
          0., 0., 0., 255., 255., 0., 0., 0., 0., 0., 0., 0., 0., 0., 0.,
          255., 0., 0., 0., 255., 255., 0., 0., 0., 0., 0., 0., 0., 0.,
          0., 0., 255., 0., 0., 0., 255., 255., 0., 0., 0., 0., 0., 0.,
          0., 0., 0., 0., 255., 0., 0., 0., 255., 255., 0., 0., 0., 0.,
          0., 0., 0., 0., 0., 0., 55., 0., 0., 0., 55., 237., 0., 0., 0.,
          0., 0., 0., 0., 0., 0., 246., 155., 0., 0., 0., 255., 255., 0.,
          0., 0., 0., 0., 0., 0., 0., 0., 255., 255., 0., 0., 0., 255.,
          255., 0., 0., 0., 0., 0., 0., 0., 0., 0., 255., 255., 0., 0.,
          0., 255., 246., 0., 0., 0., 0., 0., 0., 0., 0., 0., 255., 255.,
          0., 0., 0., 255., 237., 0., 0., 0., 0., 0., 0., 0., 0., 0.,
          255., 255., 0., 0., 0., 255., 0., 0., 0., 0., 0., 0., 0., 0.,
          0., 0., 255., 255., 0., 0., 0., 255., 0., 0., 0., 0., 0., 0.,
          0., 0., 0., 0., 255., 255., 255., 255., 255., 255., 0., 0., 0.,
          0., 0., 0., 0., 0., 0., 0., 0., 255., 255., 255., 255., 255.,
          0., 0., 0., 0., 0., 0. ]
      - [ 0., 0., 0., 0., 0., 0., 255., 255., 255., 0., 0., 0., 0., 0.,
          0., 0., 0., 0., 0., 0., 0., 255., 255., 255., 255., 255., 0.,
          0., 0., 0., 0., 0., 0., 0., 0., 0., 0., 255., 255., 0., 0.,
          255., 0., 0., 0., 0., 0., 0., 0., 0., 0., 0., 0., 255., 0., 0.,
          0., 255., 0., 0., 0., 0., 0., 0., 0., 0., 0., 0., 0., 255., 0.,
          0., 0., 255., 0., 0., 0., 0., 0., 0., 0., 0., 0., 0., 0., 255.,
          0., 0., 0., 255., 0., 0., 0., 0., 0., 0., 0., 0., 0., 0., 0.,
          255., 0., 0., 0., 255., 0., 0., 0., 0., 0., 0., 0., 0., 0., 0.,
          0., 255., 0., 0., 0., 255., 0., 0., 0., 0., 0., 0., 0., 0., 0.,
          0., 0., 255., 0., 0., 0., 255., 0., 0., 0., 0., 0., 0., 0., 0.,
          0., 0., 0., 255., 0., 0., 0., 255., 0., 0., 0., 0., 0., 0., 0.,
          0., 0., 0., 0., 255., 0., 0., 0., 255., 0., 0., 0., 0., 0., 0.,
          0., 0., 0., 0., 0., 255., 0., 0., 0., 255., 0., 0., 0., 0., 0.,
          0., 0., 0., 0., 0., 0., 255., 0., 0., 0., 255., 0., 0., 0., 0.,
          0., 0., 0., 0., 0., 0., 0., 255., 0., 0., 48., 255., 0., 0.,
          0., 0., 0., 0., 0., 0., 0., 0., 0., 255., 255., 255., 255.,
          255., 0., 0., 0., 0., 0., 0., 0., 0., 0., 0., 0., 188., 255.,
          255., 255., 0., 0., 0., 0., 0., 0., 0. ]
      - [ 0., 0., 0., 0., 0., 0., 255., 255., 255., 96., 0., 0., 0., 0.,
          0., 0., 0., 0., 0., 0., 0., 255., 255., 255., 255., 255., 0.,
          0., 0., 0., 0., 0., 0., 0., 0., 0., 0., 255., 255., 223., 229.,
          255., 0., 0., 0., 0., 0., 0., 0., 0., 0., 0., 0., 255., 255.,
          0., 0., 255., 0., 0., 0., 0., 0., 0., 0., 0., 0., 0., 0., 255.,
          255., 0., 0., 255., 0., 0., 0., 0., 0., 0., 0., 0., 0., 0., 0.,
          255., 51., 0., 0., 255., 0., 0., 0., 0., 0., 0., 0., 0., 0.,
          0., 0., 255., 0., 0., 0., 255., 0., 0., 0., 0., 0., 0., 0., 0.,
          0., 0., 0., 255., 0., 0., 0., 255., 0., 0., 0., 0., 0., 0., 0.,
          0., 0., 0., 0., 255., 0., 0., 0., 255., 0., 0., 0., 0., 0., 0.,
          0., 0., 0., 0., 0., 255., 0., 0., 0., 255., 0., 0., 0., 0., 0.,
          0., 0., 0., 0., 0., 0., 255., 0., 0., 0., 255., 0., 0., 0., 0.,
          0., 0., 0., 0., 0., 0., 0., 255., 0., 0., 51., 255., 0., 0.,
          0., 0., 0., 0., 0., 0., 0., 0., 0., 255., 0., 0., 51., 255.,
          0., 0., 0., 0., 0., 0., 0., 0., 0., 0., 0., 255., 0., 223.,
          255., 255., 0., 0., 0., 0., 0., 0., 0., 0., 0., 0., 0., 255.,
          255., 255., 255., 255., 0., 0., 0., 0., 0., 0., 0., 0., 0., 0.,
          0., 153., 255., 255., 255., 0., 0., 0., 0., 0., 0., 0. ]
      - [ 0., 0., 0., 0., 0., 0., 255., 255., 255., 255., 0., 0., 0., 0.,
          0., 0., 0., 0., 0., 0., 0., 255., 255., 255., 255., 255., 255.,
          0., 0., 0., 0., 0., 0., 0., 0., 0., 0., 255., 255., 255., 255.,
          255., 255., 0., 0., 0., 0., 0., 0., 0., 0., 0., 0., 255., 255.,
          0., 0., 255., 255., 0., 0., 0., 0., 0., 0., 0., 0., 0., 0.,
          255., 255., 0., 0., 255., 255., 0., 0., 0., 0., 0., 0., 0., 0.,
          0., 0., 255., 255., 0., 0., 255., 255., 0., 0., 0., 0., 0., 0.,
          0., 0., 0., 0., 255., 255., 0., 0., 255., 255., 0., 0., 0., 0.,
          0., 0., 0., 0., 0., 0., 255., 255., 0., 0., 255., 255., 0., 0.,
          0., 0., 0., 0., 0., 0., 0., 0., 255., 255., 0., 0., 255., 255.,
          0., 0., 0., 0., 0., 0., 0., 0., 0., 0., 255., 255., 0., 0.,
          255., 255., 0., 0., 0., 0., 0., 0., 0., 0., 0., 0., 255., 255.,
          0., 0., 255., 255., 0., 0., 0., 0., 0., 0., 0., 0., 0., 0.,
          255., 255., 0., 0., 255., 255., 0., 0., 0., 0., 0., 0., 0., 0.,
          0., 0., 255., 255., 0., 0., 255., 255., 0., 0., 0., 0., 0., 0.,
          0., 0., 0., 0., 255., 255., 255., 255., 255., 255., 0., 0., 0.,
          0., 0., 0., 0., 0., 0., 0., 255., 255., 255., 255., 255., 123.,
          0., 0., 0., 0., 0., 0., 0., 0., 0., 0., 0., 255., 255., 255.,
          255., 0., 0., 0., 0., 0., 0. ]
      - [ 0., 0., 0., 0., 0., 0., 255., 255., 255., 102., 0., 0., 0., 0.,
          0., 0., 0., 0., 0., 0., 0., 255., 255., 255., 255., 255., 0.,
          0., 0., 0., 0., 0., 0., 0., 0., 0., 0., 255., 0., 0., 0., 255.,
          0., 0., 0., 0., 0., 0., 0., 0., 0., 0., 0., 255., 0., 0., 0.,
          255., 0., 0., 0., 0., 0., 0., 0., 0., 0., 0., 0., 255., 0., 0.,
          0., 255., 0., 0., 0., 0., 0., 0., 0., 0., 0., 0., 0., 255., 0.,
          0., 0., 255., 0., 0., 0., 0., 0., 0., 0., 0., 0., 0., 0., 255.,
          0., 0., 0., 255., 0., 0., 0., 0., 0., 0., 0., 0., 0., 0., 0.,
          255., 0., 0., 0., 255., 0., 0., 0., 0., 0., 0., 0., 0., 0., 0.,
          0., 255., 0., 0., 0., 255., 0., 0., 0., 0., 0., 0., 0., 0., 0.,
          0., 0., 255., 0., 0., 0., 255., 0., 0., 0., 0., 0., 0., 0., 0.,
          0., 0., 0., 255., 0., 0., 0., 255., 0., 0., 0., 0., 0., 0., 0.,
          0., 0., 0., 0., 255., 0., 0., 0., 255., 0., 0., 0., 0., 0., 0.,
          0., 0., 0., 0., 0., 255., 0., 0., 0., 255., 0., 0., 0., 0., 0.,
          0., 0., 0., 0., 0., 0., 255., 0., 0., 48., 255., 0., 0., 0.,
          0., 0., 0., 0., 0., 0., 0., 0., 255., 255., 255., 255., 255.,
          0., 0., 0., 0., 0., 0., 0., 0., 0., 0., 0., 102., 255., 255.,
          255., 0., 0., 0., 0., 0., 0., 0. ]
      - [ 0., 0., 0., 0., 0., 0., 255., 255., 255., 0., 0., 0., 0., 0.,
          0., 0., 0., 0., 0., 0., 0., 255., 255., 255., 255., 255., 0.,
          0., 0., 0., 0., 0., 0., 0., 0., 0., 0., 255., 255., 0., 0.,
          255., 0., 0., 0., 0., 0., 0., 0., 0., 0., 0., 0., 255., 177.,
          0., 0., 255., 0., 0., 0., 0., 0., 0., 0., 0., 0., 0., 0., 255.,
          76., 0., 0., 255., 0., 0., 0., 0., 0., 0., 0., 0., 0., 0., 0.,
          255., 76., 0., 0., 255., 0., 0., 0., 0., 0., 0., 0., 0., 0.,
          0., 0., 255., 0., 0., 0., 255., 0., 0., 0., 0., 0., 0., 0., 0.,
          0., 0., 0., 255., 0., 0., 0., 255., 0., 0., 0., 0., 0., 0., 0.,
          0., 0., 0., 0., 255., 0., 0., 0., 255., 0., 0., 0., 0., 0., 0.,
          0., 0., 0., 0., 0., 255., 0., 0., 0., 255., 0., 0., 0., 0., 0.,
          0., 0., 0., 0., 0., 0., 255., 0., 0., 0., 255., 0., 0., 0., 0.,
          0., 0., 0., 0., 0., 0., 0., 255., 0., 0., 0., 255., 0., 0., 0.,
          0., 0., 0., 0., 0., 0., 0., 0., 255., 0., 0., 0., 255., 0., 0.,
          0., 0., 0., 0., 0., 0., 0., 0., 0., 255., 0., 0., 76., 255.,
          0., 0., 0., 0., 0., 0., 0., 0., 0., 0., 0., 255., 255., 255.,
          255., 255., 0., 0., 0., 0., 0., 0., 0., 0., 0., 0., 0., 229.,
          255., 255., 255., 0., 0., 0., 0., 0., 0., 0. ]
      - [ 0., 0., 0., 0., 0., 0., 255., 255., 255., 255., 0., 0., 0., 0.,
          0., 0., 0., 0., 0., 0., 0., 255., 255., 255., 255., 255., 255.,
          0., 0., 0., 0., 0., 0., 0., 0., 0., 0., 255., 255., 255., 255.,
          255., 255., 0., 0., 0., 0., 0., 0., 0., 0., 0., 0., 255., 255.,
          0., 0., 255., 255., 0., 0., 0., 0., 0., 0., 0., 0., 0., 0.,
          255., 255., 0., 0., 255., 255., 0., 0., 0., 0., 0., 0., 0., 0.,
          0., 0., 255., 255., 0., 0., 255., 255., 0., 0., 0., 0., 0., 0.,
          0., 0., 0., 0., 255., 255., 0., 0., 255., 255., 0., 0., 0., 0.,
          0., 0., 0., 0., 0., 0., 255., 0., 0., 0., 0., 255., 0., 0., 0.,
          0., 0., 0., 0., 0., 0., 0., 255., 143., 0., 0., 255., 255., 0.,
          0., 0., 0., 0., 0., 0., 0., 0., 0., 255., 255., 0., 0., 255.,
          255., 0., 0., 0., 0., 0., 0., 0., 0., 0., 0., 255., 255., 0.,
          0., 255., 255., 0., 0., 0., 0., 0., 0., 0., 0., 0., 0., 255.,
          255., 0., 0., 255., 255., 0., 0., 0., 0., 0., 0., 0., 0., 0.,
          0., 255., 255., 0., 0., 255., 255., 0., 0., 0., 0., 0., 0., 0.,
          0., 0., 0., 255., 255., 122., 255., 255., 255., 0., 0., 0., 0.,
          0., 0., 0., 0., 0., 0., 255., 255., 255., 255., 255., 122., 0.,
          0., 0., 0., 0., 0., 0., 0., 0., 0., 0., 255., 255., 255., 255.,
          0., 0., 0., 0., 0., 0. ]
      - [ 0., 0., 0., 0., 0., 0., 255., 255., 255., 0., 0., 0., 0., 0.,
          0., 0., 0., 0., 0., 0., 0., 255., 255., 255., 255., 255., 0.,
          0., 0., 0., 0., 0., 0., 0., 0., 0., 0., 255., 255., 175., 0.,
          255., 0., 0., 0., 0., 0., 0., 0., 0., 0., 0., 0., 255., 255.,
          0., 0., 255., 0., 0., 0., 0., 0., 0., 0., 0., 0., 0., 0., 255.,
          0., 0., 0., 255., 0., 0., 0., 0., 0., 0., 0., 0., 0., 0., 0.,
          255., 0., 0., 0., 255., 0., 0., 0., 0., 0., 0., 0., 0., 0., 0.,
          0., 255., 0., 0., 0., 255., 0., 0., 0., 0., 0., 0., 0., 0., 0.,
          0., 0., 255., 0., 0., 0., 255., 0., 0., 0., 0., 0., 0., 0., 0.,
          0., 0., 0., 255., 0., 0., 0., 255., 0., 0., 0., 0., 0., 0., 0.,
          0., 0., 0., 0., 255., 0., 0., 0., 255., 0., 0., 0., 0., 0., 0.,
          0., 0., 0., 0., 0., 255., 0., 0., 0., 255., 0., 0., 0., 0., 0.,
          0., 0., 0., 0., 0., 0., 255., 0., 0., 0., 255., 0., 0., 0., 0.,
          0., 0., 0., 0., 0., 0., 0., 255., 0., 0., 0., 255., 0., 0., 0.,
          0., 0., 0., 0., 0., 0., 0., 0., 255., 0., 0., 0., 255., 0., 0.,
          0., 0., 0., 0., 0., 0., 0., 0., 0., 255., 255., 255., 255.,
          255., 0., 0., 0., 0., 0., 0., 0., 0., 0., 0., 0., 0., 255.,
          255., 255., 0., 0., 0., 0., 0., 0., 0. ]
      - [ 0., 0., 0., 0., 0., 0., 255., 255., 255., 25., 0., 0., 0., 0.,
          0., 0., 0., 0., 0., 0., 0., 255., 255., 255., 255., 255., 0.,
          0., 0., 0., 0., 0., 0., 0., 0., 0., 0., 255., 255., 28., 115.,
          255., 0., 0., 0., 0., 0., 0., 0., 0., 0., 0., 0., 255., 255.,
          0., 0., 255., 0., 0., 0., 0., 0., 0., 0., 0., 0., 0., 0., 255.,
          179., 0., 0., 255., 0., 0., 0., 0., 0., 0., 0., 0., 0., 0., 0.,
          255., 0., 0., 0., 255., 0., 0., 0., 0., 0., 0., 0., 0., 0., 0.,
          0., 255., 0., 0., 0., 255., 0., 0., 0., 0., 0., 0., 0., 0., 0.,
          0., 0., 255., 0., 0., 0., 255., 0., 0., 0., 0., 0., 0., 0., 0.,
          0., 0., 0., 255., 0., 0., 0., 255., 0., 0., 0., 0., 0., 0., 0.,
          0., 0., 0., 0., 255., 0., 0., 0., 255., 0., 0., 0., 0., 0., 0.,
          0., 0., 0., 0., 0., 255., 0., 0., 0., 255., 0., 0., 0., 0., 0.,
          0., 0., 0., 0., 0., 0., 255., 0., 0., 0., 255., 0., 0., 0., 0.,
          0., 0., 0., 0., 0., 0., 0., 255., 0., 0., 0., 255., 0., 0., 0.,
          0., 0., 0., 0., 0., 0., 0., 0., 255., 0., 0., 0., 255., 0., 0.,
          0., 0., 0., 0., 0., 0., 0., 0., 0., 255., 255., 255., 255.,
          255., 0., 0., 0., 0., 0., 0., 0., 0., 0., 0., 0., 25., 255.,
          255., 255., 0., 0., 0., 0., 0., 0., 0. ]
      - [ 0., 0., 0., 0., 0., 0., 255., 255., 255., 0., 0., 0., 0., 0.,
          0., 0., 0., 0., 0., 0., 0., 255., 255., 255., 255., 255., 0.,
          0., 0., 0., 0., 0., 0., 0., 0., 0., 0., 255., 25., 191., 0.,
          255., 0., 0., 0., 0., 0., 0., 0., 0., 0., 0., 0., 255., 25.,
          0., 0., 255., 0., 0., 0., 0., 0., 0., 0., 0., 0., 0., 0., 255.,
          0., 0., 0., 255., 0., 0., 0., 0., 0., 0., 0., 0., 0., 0., 0.,
          255., 0., 0., 0., 255., 0., 0., 0., 0., 0., 0., 0., 0., 0., 0.,
          0., 255., 0., 0., 0., 255., 0., 0., 0., 0., 0., 0., 0., 0., 0.,
          0., 0., 255., 0., 0., 0., 255., 0., 0., 0., 0., 0., 0., 0., 0.,
          0., 0., 0., 255., 0., 0., 0., 255., 0., 0., 0., 0., 0., 0., 0.,
          0., 0., 0., 0., 255., 0., 0., 0., 255., 0., 0., 0., 0., 0., 0.,
          0., 0., 0., 0., 0., 255., 0., 0., 0., 255., 0., 0., 0., 0., 0.,
          0., 0., 0., 0., 0., 0., 255., 0., 0., 25., 255., 0., 0., 0.,
          0., 0., 0., 0., 0., 0., 0., 0., 255., 0., 0., 255., 255., 0.,
          0., 0., 0., 0., 0., 0., 0., 0., 0., 0., 255., 0., 0., 255.,
          255., 0., 0., 0., 0., 0., 0., 0., 0., 0., 0., 0., 255., 255.,
          255., 255., 255., 0., 0., 0., 0., 0., 0., 0., 0., 0., 0., 0.,
          76., 255., 255., 255., 0., 0., 0., 0., 0., 0., 0. ]
      - [ 0., 0., 0., 0., 0., 0., 255., 255., 255., 0., 0., 0., 0., 0.,
          0., 0., 0., 0., 0., 0., 0., 255., 255., 255., 255., 255., 0.,
          0., 0., 0., 0., 0., 0., 0., 0., 0., 0., 255., 102., 255., 0.,
          255., 0., 0., 0., 0., 0., 0., 0., 0., 0., 0., 0., 255., 0., 0.,
          0., 255., 0., 0., 0., 0., 0., 0., 0., 0., 0., 0., 0., 255., 0.,
          0., 0., 255., 0., 0., 0., 0., 0., 0., 0., 0., 0., 0., 0., 255.,
          0., 0., 0., 255., 0., 0., 0., 0., 0., 0., 0., 0., 0., 0., 0.,
          255., 0., 0., 0., 255., 0., 0., 0., 0., 0., 0., 0., 0., 0., 0.,
          0., 255., 0., 0., 0., 255., 0., 0., 0., 0., 0., 0., 0., 0., 0.,
          0., 0., 255., 0., 0., 0., 255., 0., 0., 0., 0., 0., 0., 0., 0.,
          0., 0., 0., 255., 0., 0., 0., 255., 0., 0., 0., 0., 0., 0., 0.,
          0., 0., 0., 0., 255., 0., 0., 0., 255., 0., 0., 0., 0., 0., 0.,
          0., 0., 0., 0., 0., 255., 0., 0., 0., 255., 0., 0., 0., 0., 0.,
          0., 0., 0., 0., 0., 0., 255., 0., 0., 0., 255., 0., 0., 0., 0.,
          0., 0., 0., 0., 0., 0., 0., 255., 0., 0., 0., 255., 0., 0., 0.,
          0., 0., 0., 0., 0., 0., 0., 0., 255., 255., 255., 255., 255.,
          0., 0., 0., 0., 0., 0., 0., 0., 0., 0., 0., 255., 255., 255.,
          255., 0., 0., 0., 0., 0., 0., 0. ]
      - [ 0., 0., 0., 0., 0., 0., 255., 255., 255., 0., 0., 0., 0., 0.,
          0., 0., 0., 0., 0., 0., 0., 255., 255., 255., 255., 255., 0.,
          0., 0., 0., 0., 0., 0., 0., 0., 0., 0., 255., 0., 0., 0., 255.,
          0., 0., 0., 0., 0., 0., 0., 0., 0., 0., 0., 255., 0., 0., 0.,
          255., 0., 0., 0., 0., 0., 0., 0., 0., 0., 0., 0., 255., 0., 0.,
          0., 255., 0., 0., 0., 0., 0., 0., 0., 0., 0., 0., 0., 255., 0.,
          0., 0., 255., 0., 0., 0., 0., 0., 0., 0., 0., 0., 0., 0., 255.,
          0., 0., 0., 255., 0., 0., 0., 0., 0., 0., 0., 0., 0., 0., 0.,
          255., 0., 0., 0., 255., 0., 0., 0., 0., 0., 0., 0., 0., 0., 0.,
          0., 255., 0., 0., 0., 255., 0., 0., 0., 0., 0., 0., 0., 0., 0.,
          0., 0., 255., 0., 0., 0., 255., 0., 0., 0., 0., 0., 0., 0., 0.,
          0., 0., 0., 255., 0., 0., 0., 255., 0., 0., 0., 0., 0., 0., 0.,
          0., 0., 0., 0., 255., 0., 0., 0., 255., 0., 0., 0., 0., 0., 0.,
          0., 0., 0., 0., 0., 255., 0., 0., 0., 255., 0., 0., 0., 0., 0.,
          0., 0., 0., 0., 0., 0., 255., 0., 0., 0., 255., 0., 0., 0., 0.,
          0., 0., 0., 0., 0., 0., 0., 255., 255., 255., 255., 255., 0.,
          0., 0., 0., 0., 0., 0., 0., 0., 0., 0., 0., 255., 255., 255.,
          0., 0., 0., 0., 0., 0., 0. ]
      - [ 0., 0., 0., 0., 0., 0., 255., 255., 255., 0., 0., 0., 0., 0.,
          0., 0., 0., 0., 0., 0., 0., 255., 255., 255., 255., 255., 0.,
          0., 0., 0., 0., 0., 0., 0., 0., 0., 0., 255., 0., 127., 191.,
          255., 0., 0., 0., 0., 0., 0., 0., 0., 0., 0., 0., 255., 0., 0.,
          0., 255., 0., 0., 0., 0., 0., 0., 0., 0., 0., 0., 0., 255., 0.,
          0., 0., 255., 0., 0., 0., 0., 0., 0., 0., 0., 0., 0., 0., 255.,
          0., 0., 0., 255., 0., 0., 0., 0., 0., 0., 0., 0., 0., 0., 0.,
          255., 0., 0., 0., 255., 0., 0., 0., 0., 0., 0., 0., 0., 0., 0.,
          0., 255., 0., 0., 0., 255., 0., 0., 0., 0., 0., 0., 0., 0., 0.,
          0., 0., 255., 0., 0., 0., 255., 0., 0., 0., 0., 0., 0., 0., 0.,
          0., 0., 0., 255., 0., 0., 0., 255., 0., 0., 0., 0., 0., 0., 0.,
          0., 0., 0., 0., 255., 0., 0., 0., 255., 0., 0., 0., 0., 0., 0.,
          0., 0., 0., 0., 0., 255., 0., 0., 0., 255., 0., 0., 0., 0., 0.,
          0., 0., 0., 0., 0., 0., 255., 0., 0., 0., 255., 0., 0., 0., 0.,
          0., 0., 0., 0., 0., 0., 0., 255., 0., 0., 0., 255., 0., 0., 0.,
          0., 0., 0., 0., 0., 0., 0., 0., 255., 255., 255., 255., 255.,
          0., 0., 0., 0., 0., 0., 0., 0., 0., 0., 0., 0., 255., 255.,
          255., 0., 0., 0., 0., 0., 0., 0. ]
      - [ 0., 0., 0., 0., 0., 255., 255., 255., 255., 237., 0., 0., 0.,
          0., 0., 0., 0., 0., 0., 0., 255., 255., 255., 255., 255., 255.,
          97., 0., 0., 0., 0., 0., 0., 0., 0., 0., 255., 255., 0., 0.,
          0., 255., 164., 0., 0., 0., 0., 0., 0., 0., 0., 0., 255., 255.,
          0., 0., 0., 255., 164., 0., 0., 0., 0., 0., 0., 0., 0., 0.,
          255., 255., 0., 0., 0., 255., 164., 0., 0., 0., 0., 0., 0., 0.,
          0., 0., 255., 255., 0., 0., 0., 255., 255., 0., 0., 0., 0., 0.,
          0., 0., 0., 0., 255., 2., 0., 0., 0., 255., 255., 0., 0., 0.,
          0., 0., 0., 0., 0., 0., 164., 0., 0., 0., 0., 0., 164., 0., 0.,
          0., 0., 0., 0., 0., 0., 0., 255., 0., 0., 0., 0., 1., 167., 0.,
          0., 0., 0., 0., 0., 0., 0., 0., 255., 255., 0., 0., 0., 255.,
          255., 0., 0., 0., 0., 0., 0., 0., 0., 0., 255., 255., 0., 0.,
          0., 255., 255., 0., 0., 0., 0., 0., 0., 0., 0., 0., 255., 255.,
          0., 0., 0., 255., 255., 0., 0., 0., 0., 0., 0., 0., 0., 0.,
          255., 255., 0., 0., 0., 255., 255., 0., 0., 0., 0., 0., 0., 0.,
          0., 0., 255., 255., 0., 0., 0., 255., 255., 0., 0., 0., 0., 0.,
          0., 0., 0., 0., 164., 255., 255., 255., 255., 255., 255., 0.,
          0., 0., 0., 0., 0., 0., 0., 0., 0., 255., 255., 255., 255.,
          255., 0., 0., 0., 0., 0., 0. ]
      - [ 0., 0., 0., 0., 0., 255., 255., 255., 255., 126., 0., 0., 0.,
          0., 0., 0., 0., 0., 0., 0., 255., 255., 255., 255., 255., 255.,
          97., 0., 0., 0., 0., 0., 0., 0., 0., 0., 255., 255., 0., 0.,
          0., 255., 164., 0., 0., 0., 0., 0., 0., 0., 0., 0., 255., 255.,
          0., 0., 0., 255., 164., 0., 0., 0., 0., 0., 0., 0., 0., 0.,
          255., 255., 0., 0., 0., 255., 164., 0., 0., 0., 0., 0., 0., 0.,
          0., 0., 255., 255., 0., 0., 0., 255., 255., 0., 0., 0., 0., 0.,
          0., 0., 0., 0., 255., 2., 0., 0., 0., 255., 255., 0., 0., 0.,
          0., 0., 0., 0., 0., 0., 255., 0., 0., 0., 0., 0., 164., 0., 0.,
          0., 0., 0., 0., 0., 0., 0., 255., 0., 0., 0., 0., 1., 167., 0.,
          0., 0., 0., 0., 0., 0., 0., 0., 255., 255., 0., 0., 0., 255.,
          255., 0., 0., 0., 0., 0., 0., 0., 0., 0., 255., 255., 0., 0.,
          0., 255., 255., 0., 0., 0., 0., 0., 0., 0., 0., 0., 255., 255.,
          0., 0., 0., 255., 255., 0., 0., 0., 0., 0., 0., 0., 0., 0.,
          255., 255., 0., 0., 0., 255., 255., 0., 0., 0., 0., 0., 0., 0.,
          0., 0., 255., 255., 0., 0., 0., 255., 255., 0., 0., 0., 0., 0.,
          0., 0., 0., 0., 164., 255., 255., 255., 255., 255., 255., 0.,
          0., 0., 0., 0., 0., 0., 0., 0., 0., 255., 255., 255., 255.,
          255., 0., 0., 0., 0., 0., 0. ]
      - [ 0., 0., 0., 0., 60., 255., 255., 255., 255., 187., 0., 0., 0.,
          0., 0., 0., 0., 0., 0., 0., 255., 255., 255., 255., 255., 255.,
          127., 0., 0., 0., 0., 0., 0., 0., 0., 0., 255., 0., 0., 0., 0.,
          255., 127., 0., 0., 0., 0., 0., 0., 0., 0., 0., 255., 0., 0.,
          0., 0., 255., 127., 0., 0., 0., 0., 0., 0., 0., 0., 0., 255.,
          0., 0., 0., 0., 255., 255., 0., 0., 0., 0., 0., 0., 0., 0., 0.,
          255., 0., 0., 0., 0., 127., 255., 0., 0., 0., 0., 0., 0., 0.,
          0., 0., 255., 0., 0., 0., 0., 0., 243., 0., 0., 0., 0., 0., 0.,
          0., 0., 0., 127., 0., 0., 0., 0., 0., 127., 0., 0., 0., 0., 0.,
          0., 0., 0., 0., 251., 0., 0., 0., 0., 0., 251., 0., 0., 0., 0.,
          0., 0., 0., 0., 0., 255., 0., 0., 0., 0., 0., 255., 0., 0., 0.,
          0., 0., 0., 0., 0., 0., 255., 127., 0., 0., 0., 0., 255., 0.,
          0., 0., 0., 0., 0., 0., 0., 0., 255., 127., 0., 0., 0., 0.,
          255., 0., 0., 0., 0., 0., 0., 0., 0., 0., 255., 127., 0., 0.,
          0., 0., 255., 0., 0., 0., 0., 0., 0., 0., 0., 0., 255., 211.,
          0., 0., 0., 0., 255., 0., 0., 0., 0., 0., 0., 0., 0., 0., 127.,
          255., 255., 255., 255., 255., 255., 0., 0., 0., 0., 0., 0., 0.,
          0., 0., 0., 255., 255., 255., 255., 255., 60., 0., 0., 0., 0.,
          0. ]
      - [ 0., 0., 0., 0., 127., 255., 255., 255., 255., 187., 0., 0., 0.,
          0., 0., 0., 0., 0., 0., 0., 255., 255., 255., 255., 255., 255.,
          52., 0., 0., 0., 0., 0., 0., 0., 0., 0., 255., 0., 0., 0., 0.,
          255., 127., 0., 0., 0., 0., 0., 0., 0., 0., 0., 255., 0., 0.,
          0., 0., 255., 127., 0., 0., 0., 0., 0., 0., 0., 0., 0., 255.,
          0., 0., 0., 0., 127., 255., 0., 0., 0., 0., 0., 0., 0., 0., 0.,
          255., 0., 0., 0., 0., 127., 255., 0., 0., 0., 0., 0., 0., 0.,
          0., 0., 255., 0., 0., 0., 0., 0., 243., 0., 0., 0., 0., 0., 0.,
          0., 0., 0., 255., 0., 0., 0., 0., 0., 127., 0., 0., 0., 0., 0.,
          0., 0., 0., 0., 255., 0., 0., 0., 0., 0., 127., 0., 0., 0., 0.,
          0., 0., 0., 0., 0., 255., 0., 0., 0., 0., 0., 255., 0., 0., 0.,
          0., 0., 0., 0., 0., 0., 255., 127., 0., 0., 0., 0., 255., 0.,
          0., 0., 0., 0., 0., 0., 0., 0., 255., 127., 0., 0., 0., 0.,
          255., 0., 0., 0., 0., 0., 0., 0., 0., 0., 255., 127., 0., 0.,
          0., 0., 255., 0., 0., 0., 0., 0., 0., 0., 0., 0., 255., 127.,
          0., 0., 0., 0., 255., 0., 0., 0., 0., 0., 0., 0., 0., 0., 179.,
          255., 255., 255., 255., 255., 255., 0., 0., 0., 0., 0., 0., 0.,
          0., 0., 0., 255., 255., 255., 255., 255., 0., 0., 0., 0., 0.,
          0. ]
      - [ 0., 0., 0., 0., 0., 255., 255., 255., 255., 236., 0., 0., 0.,
          0., 0., 0., 0., 0., 0., 0., 255., 255., 255., 255., 255., 255.,
          0., 0., 0., 0., 0., 0., 0., 0., 0., 0., 255., 255., 255., 255.,
          255., 255., 237., 0., 0., 0., 0., 0., 0., 0., 0., 0., 255.,
          255., 0., 0., 0., 255., 237., 0., 0., 0., 0., 0., 0., 0., 0.,
          0., 255., 255., 0., 0., 0., 255., 237., 0., 0., 0., 0., 0., 0.,
          0., 0., 0., 255., 255., 0., 0., 0., 255., 255., 0., 0., 0., 0.,
          0., 0., 0., 0., 0., 255., 255., 0., 0., 0., 255., 255., 0., 0.,
          0., 0., 0., 0., 0., 0., 0., 237., 55., 0., 0., 0., 255., 237.,
          0., 0., 0., 0., 0., 0., 0., 0., 0., 255., 255., 0., 0., 0.,
          255., 255., 0., 0., 0., 0., 0., 0., 0., 0., 0., 255., 255., 0.,
          0., 0., 255., 255., 0., 0., 0., 0., 0., 0., 0., 0., 0., 255.,
          255., 0., 0., 0., 255., 255., 0., 0., 0., 0., 0., 0., 0., 0.,
          0., 255., 255., 0., 0., 0., 255., 255., 0., 0., 0., 0., 0., 0.,
          0., 0., 0., 255., 255., 0., 0., 0., 255., 255., 0., 0., 0., 0.,
          0., 0., 0., 0., 0., 255., 255., 255., 255., 255., 255., 255.,
          0., 0., 0., 0., 0., 0., 0., 0., 0., 237., 255., 255., 255.,
          255., 255., 255., 0., 0., 0., 0., 0., 0., 0., 0., 0., 0., 255.,
          255., 255., 255., 255., 0., 0., 0., 0., 0., 0. ]
      - [ 0., 0., 0., 0., 0., 255., 255., 255., 255., 236., 0., 0., 0.,
          0., 0., 0., 0., 0., 0., 0., 255., 255., 255., 255., 255., 255.,
          0., 0., 0., 0., 0., 0., 0., 0., 0., 0., 255., 255., 255., 255.,
          255., 255., 237., 0., 0., 0., 0., 0., 0., 0., 0., 0., 255.,
          255., 0., 0., 0., 255., 237., 0., 0., 0., 0., 0., 0., 0., 0.,
          0., 255., 255., 0., 0., 0., 255., 237., 0., 0., 0., 0., 0., 0.,
          0., 0., 0., 255., 255., 0., 0., 0., 255., 255., 0., 0., 0., 0.,
          0., 0., 0., 0., 0., 255., 255., 0., 0., 0., 255., 255., 0., 0.,
          0., 0., 0., 0., 0., 0., 0., 237., 55., 0., 0., 0., 255., 237.,
          0., 0., 0., 0., 0., 0., 0., 0., 0., 255., 255., 0., 0., 0.,
          255., 255., 0., 0., 0., 0., 0., 0., 0., 0., 0., 255., 255., 0.,
          0., 0., 255., 255., 0., 0., 0., 0., 0., 0., 0., 0., 0., 255.,
          255., 0., 0., 0., 255., 255., 0., 0., 0., 0., 0., 0., 0., 0.,
          0., 255., 255., 0., 0., 0., 255., 255., 0., 0., 0., 0., 0., 0.,
          0., 0., 0., 255., 255., 0., 0., 0., 255., 255., 0., 0., 0., 0.,
          0., 0., 0., 0., 0., 255., 255., 255., 183., 255., 255., 255.,
          0., 0., 0., 0., 0., 0., 0., 0., 0., 237., 255., 255., 255.,
          255., 255., 255., 0., 0., 0., 0., 0., 0., 0., 0., 0., 0., 255.,
          255., 255., 255., 255., 0., 0., 0., 0., 0., 0. ]
      - [ 0., 0., 0., 0., 119., 255., 255., 255., 255., 188., 0., 0., 0.,
          0., 0., 0., 0., 0., 0., 0., 255., 255., 255., 255., 255., 255.,
          157., 0., 0., 0., 0., 0., 0., 0., 0., 0., 255., 255., 255.,
          255., 255., 255., 200., 0., 0., 0., 0., 0., 0., 0., 0., 0.,
          255., 255., 0., 0., 0., 255., 200., 0., 0., 0., 0., 0., 0., 0.,
          0., 0., 255., 255., 0., 0., 0., 255., 200., 0., 0., 0., 0., 0.,
          0., 0., 0., 0., 255., 255., 0., 0., 0., 255., 255., 0., 0., 0.,
          0., 0., 0., 0., 0., 0., 255., 255., 0., 0., 0., 255., 255., 0.,
          0., 0., 0., 0., 0., 0., 0., 0., 200., 0., 0., 0., 0., 164.,
          200., 0., 0., 0., 0., 0., 0., 0., 0., 0., 255., 15., 0., 0.,
          0., 255., 255., 0., 0., 0., 0., 0., 0., 0., 0., 0., 255., 255.,
          0., 0., 0., 255., 255., 0., 0., 0., 0., 0., 0., 0., 0., 0.,
          255., 255., 0., 0., 0., 255., 255., 0., 0., 0., 0., 0., 0., 0.,
          0., 0., 255., 255., 0., 0., 0., 255., 255., 0., 0., 0., 0., 0.,
          0., 0., 0., 0., 255., 255., 0., 0., 0., 255., 255., 0., 0., 0.,
          0., 0., 0., 0., 0., 0., 255., 255., 255., 0., 8., 255., 255.,
          0., 0., 0., 0., 0., 0., 0., 0., 0., 200., 255., 255., 255.,
          255., 255., 255., 0., 0., 0., 0., 0., 0., 0., 0., 0., 0., 255.,
          255., 255., 255., 255., 0., 0., 0., 0., 0., 0. ]
      - [ 0., 0., 0., 0., 0., 255., 255., 255., 255., 188., 0., 0., 0.,
          0., 0., 0., 0., 0., 0., 0., 255., 255., 255., 255., 255., 255.,
          157., 0., 0., 0., 0., 0., 0., 0., 0., 0., 255., 255., 25.,
          131., 255., 255., 200., 0., 0., 0., 0., 0., 0., 0., 0., 0.,
          255., 255., 0., 0., 0., 255., 200., 0., 0., 0., 0., 0., 0., 0.,
          0., 0., 255., 255., 0., 0., 0., 255., 200., 0., 0., 0., 0., 0.,
          0., 0., 0., 0., 255., 255., 0., 0., 0., 255., 255., 0., 0., 0.,
          0., 0., 0., 0., 0., 0., 255., 255., 0., 0., 0., 255., 255., 0.,
          0., 0., 0., 0., 0., 0., 0., 0., 200., 0., 0., 0., 0., 164.,
          200., 0., 0., 0., 0., 0., 0., 0., 0., 0., 255., 15., 0., 0.,
          0., 255., 255., 0., 0., 0., 0., 0., 0., 0., 0., 0., 255., 255.,
          0., 0., 0., 255., 255., 0., 0., 0., 0., 0., 0., 0., 0., 0.,
          255., 255., 0., 0., 0., 255., 255., 0., 0., 0., 0., 0., 0., 0.,
          0., 0., 255., 255., 0., 0., 0., 255., 255., 0., 0., 0., 0., 0.,
          0., 0., 0., 0., 255., 255., 0., 0., 0., 255., 255., 0., 0., 0.,
          0., 0., 0., 0., 0., 0., 255., 255., 25., 4., 8., 255., 255.,
          0., 0., 0., 0., 0., 0., 0., 0., 0., 200., 255., 255., 255.,
          255., 255., 255., 0., 0., 0., 0., 0., 0., 0., 0., 0., 0., 255.,
          255., 255., 255., 255., 0., 0., 0., 0., 0., 0. ]
      - [ 0., 0., 0., 0., 119., 255., 255., 255., 255., 188., 0., 0., 0.,
          0., 0., 0., 0., 0., 0., 0., 255., 255., 255., 255., 255., 255.,
          0., 0., 0., 0., 0., 0., 0., 0., 0., 0., 255., 255., 237., 255.,
          255., 255., 200., 0., 0., 0., 0., 0., 0., 0., 0., 0., 255.,
          255., 0., 0., 0., 255., 200., 0., 0., 0., 0., 0., 0., 0., 0.,
          0., 255., 255., 0., 0., 0., 255., 200., 0., 0., 0., 0., 0., 0.,
          0., 0., 0., 255., 255., 0., 0., 0., 255., 255., 0., 0., 0., 0.,
          0., 0., 0., 0., 0., 255., 255., 0., 0., 0., 255., 255., 0., 0.,
          0., 0., 0., 0., 0., 0., 0., 255., 0., 0., 0., 0., 164., 200.,
          0., 0., 0., 0., 0., 0., 0., 0., 0., 255., 15., 0., 0., 0.,
          255., 255., 0., 0., 0., 0., 0., 0., 0., 0., 0., 255., 255., 0.,
          0., 0., 255., 255., 0., 0., 0., 0., 0., 0., 0., 0., 0., 255.,
          255., 0., 0., 0., 255., 255., 0., 0., 0., 0., 0., 0., 0., 0.,
          0., 255., 255., 0., 0., 0., 255., 255., 0., 0., 0., 0., 0., 0.,
          0., 0., 0., 255., 255., 0., 0., 0., 255., 255., 0., 0., 0., 0.,
          0., 0., 0., 0., 0., 255., 255., 8., 8., 8., 255., 255., 0., 0.,
          0., 0., 0., 0., 0., 0., 0., 200., 255., 255., 255., 255., 255.,
          255., 0., 0., 0., 0., 0., 0., 0., 0., 0., 0., 255., 255., 255.,
          255., 255., 0., 0., 0., 0., 0., 0. ]
      - [ 0., 0., 0., 0., 0., 0., 255., 255., 255., 255., 0., 0., 0., 0.,
          0., 0., 0., 0., 0., 0., 0., 255., 255., 255., 255., 255., 255.,
          0., 0., 0., 0., 0., 0., 0., 0., 0., 0., 255., 0., 0., 0., 0.,
          255., 0., 0., 0., 0., 0., 0., 0., 0., 0., 0., 255., 0., 0., 0.,
          0., 255., 0., 0., 0., 0., 0., 0., 0., 0., 0., 0., 255., 0., 0.,
          0., 0., 255., 0., 0., 0., 0., 0., 0., 0., 0., 0., 0., 255., 0.,
          0., 0., 0., 255., 0., 0., 0., 0., 0., 0., 0., 0., 0., 0., 0.,
          0., 0., 0., 0., 182., 0., 0., 0., 0., 0., 0., 0., 0., 0., 0.,
          0., 0., 0., 0., 0., 0., 0., 0., 0., 0., 0., 0., 0., 0., 0., 0.,
          0., 0., 0., 0., 0., 0., 0., 0., 0., 0., 0., 0., 0., 0., 0.,
          182., 0., 0., 0., 0., 218., 0., 0., 0., 0., 0., 0., 0., 0., 0.,
          0., 255., 0., 0., 0., 0., 255., 0., 0., 0., 0., 0., 0., 0., 0.,
          0., 0., 255., 0., 0., 0., 0., 255., 0., 0., 0., 0., 0., 0., 0.,
          0., 0., 0., 255., 0., 0., 0., 0., 255., 0., 0., 0., 0., 0., 0.,
          0., 0., 0., 0., 255., 0., 0., 0., 0., 255., 0., 0., 0., 0., 0.,
          0., 0., 0., 0., 0., 255., 255., 255., 255., 255., 255., 0., 0.,
          0., 0., 0., 0., 0., 0., 0., 0., 182., 255., 255., 255., 255.,
          16., 0., 0., 0., 0., 0., 0. ]
      - [ 0., 0., 0., 0., 0., 0., 255., 255., 255., 255., 0., 0., 0., 0.,
          0., 0., 0., 0., 0., 0., 0., 255., 255., 255., 255., 255., 255.,
          0., 0., 0., 0., 0., 0., 0., 0., 0., 0., 255., 0., 0., 0., 0.,
          255., 0., 0., 0., 0., 0., 0., 0., 0., 0., 0., 255., 0., 0., 0.,
          0., 255., 0., 0., 0., 0., 0., 0., 0., 0., 0., 0., 255., 0., 0.,
          0., 0., 255., 0., 0., 0., 0., 0., 0., 0., 0., 0., 0., 255., 0.,
          0., 0., 0., 255., 0., 0., 0., 0., 0., 0., 0., 0., 0., 0., 0.,
          0., 0., 0., 0., 165., 0., 0., 0., 0., 0., 0., 0., 0., 0., 0.,
          0., 0., 0., 0., 0., 0., 0., 0., 0., 0., 0., 0., 0., 0., 0., 0.,
          0., 0., 0., 0., 0., 0., 0., 0., 0., 0., 0., 0., 0., 0., 0.,
          182., 0., 0., 0., 0., 198., 0., 0., 0., 0., 0., 0., 0., 0., 0.,
          0., 255., 0., 0., 0., 0., 255., 0., 0., 0., 0., 0., 0., 0., 0.,
          0., 0., 255., 0., 0., 0., 0., 255., 0., 0., 0., 0., 0., 0., 0.,
          0., 0., 0., 255., 0., 0., 0., 0., 255., 0., 0., 0., 0., 0., 0.,
          0., 0., 0., 0., 255., 0., 0., 0., 0., 255., 0., 0., 0., 0., 0.,
          0., 0., 0., 0., 0., 255., 255., 255., 255., 255., 255., 0., 0.,
          0., 0., 0., 0., 0., 0., 0., 0., 0., 255., 255., 255., 255., 0.,
          0., 0., 0., 0., 0., 0. ]
      - [ 0., 0., 0., 0., 0., 0., 255., 255., 255., 255., 0., 0., 0., 0.,
          0., 0., 0., 0., 0., 0., 0., 255., 255., 255., 255., 255., 255.,
          0., 0., 0., 0., 0., 0., 0., 0., 0., 0., 255., 0., 0., 0., 0.,
          255., 0., 0., 0., 0., 0., 0., 0., 0., 0., 0., 255., 0., 0., 0.,
          0., 255., 0., 0., 0., 0., 0., 0., 0., 0., 0., 0., 255., 0., 0.,
          0., 0., 255., 0., 0., 0., 0., 0., 0., 0., 0., 0., 0., 255., 0.,
          0., 0., 0., 255., 0., 0., 0., 0., 0., 0., 0., 0., 0., 0., 0.,
          0., 0., 0., 0., 182., 0., 0., 0., 0., 0., 0., 0., 0., 0., 0.,
          0., 0., 0., 0., 0., 0., 0., 0., 0., 0., 0., 0., 0., 0., 0., 0.,
          0., 0., 0., 0., 0., 0., 0., 0., 0., 0., 0., 0., 0., 0., 0.,
          182., 0., 0., 0., 0., 68., 0., 0., 0., 0., 0., 0., 0., 0., 0.,
          0., 255., 0., 0., 0., 0., 255., 0., 0., 0., 0., 0., 0., 0., 0.,
          0., 0., 255., 0., 0., 0., 0., 255., 0., 0., 0., 0., 0., 0., 0.,
          0., 0., 0., 255., 0., 0., 0., 0., 255., 0., 0., 0., 0., 0., 0.,
          0., 0., 0., 0., 255., 0., 0., 0., 0., 255., 0., 0., 0., 0., 0.,
          0., 0., 0., 0., 0., 255., 255., 255., 255., 255., 255., 0., 0.,
          0., 0., 0., 0., 0., 0., 0., 0., 182., 255., 255., 255., 255.,
          16., 0., 0., 0., 0., 0., 0. ]
      - [ 0., 0., 0., 0., 0., 0., 255., 255., 255., 255., 255., 0., 0.,
          0., 0., 0., 0., 0., 0., 0., 0., 255., 255., 255., 255., 255.,
          255., 255., 0., 0., 0., 0., 0., 0., 0., 0., 0., 255., 255.,
          255., 255., 255., 255., 255., 0., 0., 0., 0., 0., 0., 0., 0.,
          0., 255., 255., 0., 0., 0., 255., 255., 0., 0., 0., 0., 0., 0.,
          0., 0., 0., 255., 255., 0., 0., 0., 255., 255., 0., 0., 0., 0.,
          0., 0., 0., 0., 0., 255., 255., 0., 0., 0., 255., 255., 0., 0.,
          0., 0., 0., 0., 0., 0., 0., 255., 255., 0., 0., 0., 255., 210.,
          0., 0., 0., 0., 0., 0., 0., 0., 0., 255., 0., 0., 0., 0., 255.,
          0., 0., 0., 0., 0., 0., 0., 0., 0., 0., 255., 0., 0., 0., 0.,
          255., 0., 0., 0., 0., 0., 0., 0., 0., 0., 255., 255., 239., 0.,
          0., 255., 255., 0., 0., 0., 0., 0., 0., 0., 0., 0., 255., 255.,
          239., 0., 0., 255., 255., 0., 0., 0., 0., 0., 0., 0., 0., 0.,
          255., 255., 0., 0., 0., 255., 255., 0., 0., 0., 0., 0., 0., 0.,
          0., 0., 255., 255., 0., 0., 0., 255., 255., 0., 0., 0., 0., 0.,
          0., 0., 0., 0., 255., 255., 255., 255., 255., 255., 255., 0.,
          0., 0., 0., 0., 0., 0., 0., 0., 255., 255., 255., 255., 255.,
          255., 255., 0., 0., 0., 0., 0., 0., 0., 0., 0., 0., 255., 255.,
          255., 255., 255., 0., 0., 0., 0., 0., 0. ]
      - [ 0., 0., 0., 0., 0., 0., 255., 255., 255., 255., 255., 0., 0.,
          0., 0., 0., 0., 0., 0., 0., 0., 255., 255., 255., 255., 255.,
          255., 255., 0., 0., 0., 0., 0., 0., 0., 0., 0., 255., 255.,
          255., 255., 255., 255., 255., 0., 0., 0., 0., 0., 0., 0., 0.,
          0., 255., 255., 0., 0., 0., 255., 255., 0., 0., 0., 0., 0., 0.,
          0., 0., 0., 255., 255., 0., 0., 0., 255., 255., 0., 0., 0., 0.,
          0., 0., 0., 0., 0., 255., 255., 0., 0., 0., 255., 255., 0., 0.,
          0., 0., 0., 0., 0., 0., 0., 255., 126., 0., 0., 0., 255., 175.,
          0., 0., 0., 0., 0., 0., 0., 0., 0., 255., 0., 0., 0., 0., 255.,
          0., 0., 0., 0., 0., 0., 0., 0., 0., 0., 255., 0., 0., 0., 0.,
          255., 0., 0., 0., 0., 0., 0., 0., 0., 0., 175., 255., 0., 0.,
          0., 143., 255., 175., 0., 0., 0., 0., 0., 0., 0., 0., 255.,
          255., 0., 0., 0., 255., 255., 0., 0., 0., 0., 0., 0., 0., 0.,
          0., 255., 255., 0., 0., 0., 255., 255., 0., 0., 0., 0., 0., 0.,
          0., 0., 0., 255., 255., 0., 0., 0., 255., 255., 0., 0., 0., 0.,
          0., 0., 0., 0., 0., 255., 255., 241., 223., 229., 255., 255.,
          0., 0., 0., 0., 0., 0., 0., 0., 0., 255., 255., 255., 255.,
          255., 255., 255., 0., 0., 0., 0., 0., 0., 0., 0., 0., 110.,
          255., 255., 255., 255., 255., 0., 0., 0., 0., 0., 0. ]
      - [ 0., 0., 0., 0., 0., 0., 255., 255., 255., 255., 255., 0., 0.,
          0., 0., 0., 0., 0., 0., 0., 0., 255., 255., 255., 255., 255.,
          255., 255., 0., 0., 0., 0., 0., 0., 0., 0., 0., 255., 255.,
          255., 255., 255., 255., 255., 0., 0., 0., 0., 0., 0., 0., 0.,
          0., 255., 255., 0., 0., 0., 255., 255., 0., 0., 0., 0., 0., 0.,
          0., 0., 0., 255., 255., 0., 0., 0., 255., 255., 0., 0., 0., 0.,
          0., 0., 0., 0., 0., 255., 255., 0., 0., 0., 255., 255., 0., 0.,
          0., 0., 0., 0., 0., 0., 0., 255., 231., 0., 0., 0., 255., 191.,
          0., 0., 0., 0., 0., 0., 0., 0., 0., 255., 0., 0., 0., 0., 255.,
          0., 0., 0., 0., 0., 0., 0., 0., 0., 0., 255., 0., 0., 0., 0.,
          255., 0., 0., 0., 0., 0., 0., 0., 0., 0., 0., 255., 64., 0.,
          0., 64., 255., 24., 0., 0., 0., 0., 0., 0., 0., 0., 199., 255.,
          64., 0., 0., 255., 255., 0., 0., 0., 0., 0., 0., 0., 0., 0.,
          255., 255., 0., 0., 0., 255., 255., 0., 0., 0., 0., 0., 0., 0.,
          0., 0., 255., 255., 0., 0., 0., 255., 255., 0., 0., 0., 0., 0.,
          0., 0., 0., 0., 255., 255., 255., 223., 223., 255., 255., 0.,
          0., 0., 0., 0., 0., 0., 0., 0., 255., 255., 255., 255., 255.,
          255., 255., 0., 0., 0., 0., 0., 0., 0., 0., 0., 0., 255., 255.,
          255., 255., 255., 0., 0., 0., 0., 0., 0. ]
      - [ 0., 0., 0., 0., 0., 255., 255., 255., 255., 255., 0., 0., 0.,
          0., 0., 0., 0., 0., 0., 0., 235., 255., 255., 255., 255., 255.,
          255., 0., 0., 0., 0., 0., 0., 0., 0., 0., 255., 255., 255., 8.,
          8., 255., 255., 0., 0., 0., 0., 0., 0., 0., 0., 0., 255., 255.,
          0., 0., 0., 255., 255., 0., 0., 0., 0., 0., 0., 0., 0., 0.,
          255., 255., 0., 0., 0., 255., 255., 0., 0., 0., 0., 0., 0., 0.,
          0., 0., 255., 255., 0., 0., 0., 255., 255., 0., 0., 0., 0., 0.,
          0., 0., 0., 0., 255., 255., 0., 0., 0., 255., 255., 0., 0., 0.,
          0., 0., 0., 0., 0., 0., 164., 0., 0., 0., 0., 0., 255., 0., 0.,
          0., 0., 0., 0., 0., 0., 0., 255., 2., 0., 0., 0., 2., 255., 0.,
          0., 0., 0., 0., 0., 0., 0., 0., 255., 255., 0., 0., 0., 255.,
          255., 0., 0., 0., 0., 0., 0., 0., 0., 0., 255., 255., 0., 0.,
          0., 255., 255., 0., 0., 0., 0., 0., 0., 0., 0., 0., 255., 255.,
          0., 0., 0., 255., 255., 0., 0., 0., 0., 0., 0., 0., 0., 0.,
          255., 255., 0., 0., 0., 255., 255., 0., 0., 0., 0., 0., 0., 0.,
          0., 0., 255., 255., 8., 8., 8., 255., 255., 0., 0., 0., 0., 0.,
          0., 0., 0., 0., 255., 255., 255., 255., 255., 255., 255., 0.,
          0., 0., 0., 0., 0., 0., 0., 0., 0., 255., 255., 255., 255.,
          255., 0., 0., 0., 0., 0., 0. ]
      - [ 0., 0., 0., 0., 0., 255., 255., 255., 255., 255., 0., 0., 0.,
          0., 0., 0., 0., 0., 0., 0., 0., 255., 255., 255., 255., 255.,
          255., 0., 0., 0., 0., 0., 0., 0., 0., 0., 0., 255., 0., 0., 0.,
          0., 255., 0., 0., 0., 0., 0., 0., 0., 0., 0., 131., 255., 0.,
          0., 0., 0., 255., 0., 0., 0., 0., 0., 0., 0., 0., 0., 182.,
          255., 0., 0., 0., 218., 255., 0., 0., 0., 0., 0., 0., 0., 0.,
          0., 182., 255., 0., 0., 0., 218., 255., 0., 0., 0., 0., 0., 0.,
          0., 0., 0., 255., 0., 0., 0., 0., 0., 255., 0., 0., 0., 0., 0.,
          0., 0., 0., 0., 0., 0., 0., 0., 0., 0., 0., 0., 0., 0., 0., 0.,
          0., 0., 0., 0., 182., 0., 0., 0., 0., 0., 255., 0., 0., 0., 0.,
          0., 0., 0., 0., 0., 255., 255., 0., 0., 0., 218., 255., 0., 0.,
          0., 0., 0., 0., 0., 0., 0., 255., 255., 0., 0., 0., 255., 255.,
          0., 0., 0., 0., 0., 0., 0., 0., 0., 255., 255., 0., 0., 0.,
          255., 255., 0., 0., 0., 0., 0., 0., 0., 0., 0., 255., 218., 0.,
          0., 0., 255., 255., 0., 0., 0., 0., 0., 0., 0., 0., 0., 255.,
          218., 0., 0., 0., 255., 182., 0., 0., 0., 0., 0., 0., 0., 0.,
          0., 255., 255., 255., 255., 255., 255., 182., 0., 0., 0., 0.,
          0., 0., 0., 0., 0., 0., 255., 255., 255., 255., 255., 0., 0.,
          0., 0., 0., 0. ]
      - [ 0., 0., 0., 0., 0., 126., 255., 255., 255., 255., 0., 0., 0.,
          0., 0., 0., 0., 0., 0., 0., 0., 255., 255., 255., 255., 255.,
          255., 0., 0., 0., 0., 0., 0., 0., 0., 0., 0., 255., 0., 0., 0.,
          0., 255., 0., 0., 0., 0., 0., 0., 0., 0., 0., 164., 255., 0.,
          0., 0., 0., 255., 0., 0., 0., 0., 0., 0., 0., 0., 0., 164.,
          255., 0., 0., 0., 18., 255., 0., 0., 0., 0., 0., 0., 0., 0.,
          0., 164., 255., 0., 0., 0., 18., 255., 0., 0., 0., 0., 0., 0.,
          0., 0., 0., 255., 18., 0., 0., 0., 18., 255., 0., 0., 0., 0.,
          0., 0., 0., 0., 0., 0., 0., 0., 0., 0., 0., 255., 0., 0., 0.,
          0., 0., 0., 0., 0., 0., 164., 1., 0., 0., 0., 0., 255., 0., 0.,
          0., 0., 0., 0., 0., 0., 0., 255., 255., 0., 0., 0., 18., 255.,
          0., 0., 0., 0., 0., 0., 0., 0., 0., 255., 255., 0., 0., 0.,
          255., 255., 0., 0., 0., 0., 0., 0., 0., 0., 0., 255., 255., 0.,
          0., 0., 255., 255., 0., 0., 0., 0., 0., 0., 0., 0., 0., 255.,
          255., 0., 0., 0., 255., 255., 0., 0., 0., 0., 0., 0., 0., 0.,
          0., 255., 255., 0., 0., 0., 255., 255., 0., 0., 0., 0., 0., 0.,
          0., 0., 0., 255., 255., 255., 255., 255., 255., 255., 0., 0.,
          0., 0., 0., 0., 0., 0., 0., 0., 255., 255., 255., 255., 255.,
          0., 0., 0., 0., 0., 0. ]
      - [ 0., 0., 0., 0., 0., 0., 255., 255., 255., 255., 255., 0., 0.,
          0., 0., 0., 0., 0., 0., 0., 0., 255., 255., 255., 255., 255.,
          255., 228., 0., 0., 0., 0., 0., 0., 0., 0., 0., 255., 255.,
          255., 255., 255., 255., 255., 0., 0., 0., 0., 0., 0., 0., 0.,
          0., 255., 255., 0., 0., 0., 255., 255., 0., 0., 0., 0., 0., 0.,
          0., 0., 0., 255., 255., 0., 0., 0., 255., 255., 0., 0., 0., 0.,
          0., 0., 0., 0., 0., 255., 255., 0., 0., 0., 255., 255., 0., 0.,
          0., 0., 0., 0., 0., 0., 0., 255., 255., 0., 0., 0., 255., 255.,
          0., 0., 0., 0., 0., 0., 0., 0., 0., 255., 0., 0., 0., 0., 255.,
          0., 0., 0., 0., 0., 0., 0., 0., 0., 0., 255., 255., 0., 0., 0.,
          255., 255., 0., 0., 0., 0., 0., 0., 0., 0., 0., 255., 255., 0.,
          0., 0., 255., 255., 0., 0., 0., 0., 0., 0., 0., 0., 0., 255.,
          255., 0., 0., 159., 255., 255., 0., 0., 0., 0., 0., 0., 0., 0.,
          255., 255., 255., 0., 0., 159., 255., 255., 0., 0., 0., 0., 0.,
          0., 0., 0., 255., 255., 255., 0., 0., 255., 255., 255., 0., 0.,
          0., 0., 0., 0., 0., 0., 223., 255., 255., 255., 255., 255.,
          255., 223., 0., 0., 0., 0., 0., 0., 0., 0., 35., 255., 255.,
          255., 255., 255., 255., 0., 0., 0., 0., 0., 0., 0., 0., 0., 0.,
          255., 255., 255., 255., 255., 255., 0., 0., 0., 0., 0. ]
      - [ 0., 0., 0., 0., 0., 0., 255., 255., 255., 255., 255., 0., 0.,
          0., 0., 0., 0., 0., 0., 0., 0., 255., 255., 255., 255., 255.,
          255., 255., 0., 0., 0., 0., 0., 0., 0., 0., 0., 255., 255.,
          255., 255., 255., 255., 255., 0., 0., 0., 0., 0., 0., 0., 0.,
          0., 255., 255., 0., 0., 0., 255., 255., 0., 0., 0., 0., 0., 0.,
          0., 0., 0., 255., 255., 0., 0., 0., 255., 255., 0., 0., 0., 0.,
          0., 0., 0., 0., 0., 255., 255., 0., 0., 0., 255., 255., 0., 0.,
          0., 0., 0., 0., 0., 0., 0., 255., 255., 0., 0., 0., 255., 255.,
          0., 0., 0., 0., 0., 0., 0., 0., 0., 255., 0., 0., 0., 0., 255.,
          0., 0., 0., 0., 0., 0., 0., 0., 0., 0., 255., 255., 0., 0., 0.,
          255., 255., 0., 0., 0., 0., 0., 0., 0., 0., 255., 255., 255.,
          0., 0., 0., 255., 255., 0., 0., 0., 0., 0., 0., 0., 0., 0.,
          255., 255., 0., 0., 159., 255., 255., 0., 0., 0., 0., 0., 0.,
          0., 0., 255., 255., 255., 0., 0., 159., 255., 255., 0., 0., 0.,
          0., 0., 0., 0., 0., 255., 255., 255., 0., 0., 159., 255., 255.,
          0., 0., 0., 0., 0., 0., 0., 0., 255., 255., 255., 255., 255.,
          255., 255., 223., 0., 0., 0., 0., 0., 0., 0., 0., 35., 255.,
          255., 255., 255., 255., 255., 0., 0., 0., 0., 0., 0., 0., 0.,
          0., 0., 255., 255., 255., 255., 255., 255., 0., 0., 0., 0., 0. ]
      - [ 0., 0., 0., 0., 0., 0., 223., 255., 255., 223., 0., 0., 0., 0.,
          0., 0., 0., 0., 0., 0., 0., 0., 255., 181., 255., 255., 0., 0.,
          0., 0., 0., 0., 0., 0., 0., 0., 0., 234., 64., 0., 0., 0.,
          255., 0., 0., 0., 0., 0., 0., 0., 0., 0., 0., 234., 64., 0.,
          0., 0., 255., 0., 0., 0., 0., 0., 0., 0., 0., 0., 0., 255.,
          64., 0., 0., 0., 255., 0., 0., 0., 0., 0., 0., 0., 0., 0., 0.,
          255., 32., 0., 0., 0., 255., 0., 0., 0., 0., 0., 0., 0., 0.,
          0., 0., 234., 0., 0., 0., 0., 255., 0., 0., 0., 0., 0., 0., 0.,
          0., 0., 0., 0., 0., 0., 0., 0., 0., 0., 0., 0., 0., 0., 0., 0.,
          0., 0., 0., 117., 0., 0., 0., 0., 0., 0., 0., 0., 0., 0., 0.,
          0., 0., 0., 0., 255., 0., 0., 0., 0., 255., 0., 0., 0., 0., 0.,
          0., 0., 0., 0., 0., 255., 0., 0., 0., 0., 255., 0., 0., 0., 0.,
          0., 0., 0., 0., 0., 0., 255., 0., 0., 0., 0., 255., 0., 0., 0.,
          0., 0., 0., 0., 0., 0., 0., 255., 0., 0., 0., 0., 255., 0., 0.,
          0., 0., 0., 0., 0., 0., 0., 0., 255., 0., 0., 0., 0., 255., 0.,
          0., 0., 0., 0., 0., 0., 0., 0., 0., 255., 159., 255., 255.,
          255., 255., 0., 0., 0., 0., 0., 0., 0., 0., 0., 0., 0., 255.,
          255., 255., 255., 0., 0., 0., 0., 0., 0. ]
      - [ 0., 0., 0., 0., 0., 255., 255., 255., 255., 57., 0., 0., 0.,
          0., 0., 0., 0., 0., 0., 0., 255., 255., 255., 255., 255., 91.,
          0., 0., 0., 0., 0., 0., 0., 0., 0., 0., 255., 255., 0., 0., 0.,
          255., 200., 0., 0., 0., 0., 0., 0., 0., 0., 0., 255., 255., 0.,
          0., 0., 255., 200., 0., 0., 0., 0., 0., 0., 0., 0., 0., 255.,
          255., 0., 0., 0., 255., 200., 0., 0., 0., 0., 0., 0., 0., 0.,
          0., 255., 255., 0., 0., 0., 255., 200., 0., 0., 0., 0., 0., 0.,
          0., 0., 0., 255., 143., 0., 0., 0., 255., 200., 0., 0., 0., 0.,
          0., 0., 0., 0., 0., 200., 0., 0., 0., 0., 0., 0., 0., 0., 0.,
          0., 0., 0., 0., 0., 0., 255., 159., 0., 0., 0., 102., 255., 0.,
          0., 0., 0., 0., 0., 0., 0., 0., 255., 255., 0., 0., 0., 255.,
          255., 0., 0., 0., 0., 0., 0., 0., 0., 0., 255., 255., 0., 0.,
          0., 255., 255., 0., 0., 0., 0., 0., 0., 0., 0., 0., 255., 255.,
          0., 0., 0., 255., 255., 0., 0., 0., 0., 0., 0., 0., 0., 0.,
          255., 255., 0., 0., 0., 255., 255., 0., 0., 0., 0., 0., 0., 0.,
          0., 0., 255., 255., 0., 0., 0., 255., 255., 0., 0., 0., 0., 0.,
          0., 0., 0., 0., 248., 255., 255., 255., 255., 255., 255., 0.,
          0., 0., 0., 0., 0., 0., 0., 0., 0., 255., 255., 255., 255.,
          255., 0., 0., 0., 0., 0., 0. ]
      - [ 0., 0., 0., 0., 0., 255., 255., 255., 255., 193., 0., 0., 0.,
          0., 0., 0., 0., 0., 0., 0., 255., 255., 255., 255., 255., 255.,
          0., 0., 0., 0., 0., 0., 0., 0., 0., 0., 255., 255., 0., 0., 0.,
          255., 200., 0., 0., 0., 0., 0., 0., 0., 0., 0., 255., 255., 0.,
          0., 0., 255., 200., 0., 0., 0., 0., 0., 0., 0., 0., 0., 255.,
          255., 0., 0., 0., 255., 255., 0., 0., 0., 0., 0., 0., 0., 0.,
          0., 255., 255., 0., 0., 0., 255., 200., 0., 0., 0., 0., 0., 0.,
          0., 0., 0., 255., 143., 0., 0., 0., 243., 255., 0., 0., 0., 0.,
          0., 0., 0., 0., 0., 200., 0., 0., 0., 0., 0., 0., 0., 0., 0.,
          0., 0., 0., 0., 0., 0., 255., 221., 0., 0., 0., 102., 255., 0.,
          0., 0., 0., 0., 0., 0., 0., 0., 255., 255., 0., 0., 0., 255.,
          255., 0., 0., 0., 0., 0., 0., 0., 0., 0., 255., 255., 0., 0.,
          0., 255., 255., 0., 0., 0., 0., 0., 0., 0., 0., 0., 255., 255.,
          0., 0., 0., 255., 255., 0., 0., 0., 0., 0., 0., 0., 0., 0.,
          255., 255., 0., 0., 0., 255., 255., 0., 0., 0., 0., 0., 0., 0.,
          0., 0., 255., 255., 207., 0., 0., 255., 255., 0., 0., 0., 0.,
          0., 0., 0., 0., 0., 248., 255., 255., 255., 255., 255., 255.,
          0., 0., 0., 0., 0., 0., 0., 0., 0., 0., 255., 255., 255., 255.,
          255., 0., 0., 0., 0., 0., 0. ]
      - [ 0., 0., 0., 0., 0., 0., 255., 255., 255., 255., 255., 0., 0.,
          0., 0., 0., 0., 0., 0., 0., 0., 255., 255., 255., 255., 255.,
          255., 255., 0., 0., 0., 0., 0., 0., 0., 0., 0., 255., 255., 0.,
          0., 0., 32., 255., 0., 0., 0., 0., 0., 0., 0., 0., 0., 255.,
          255., 0., 0., 0., 255., 255., 0., 0., 0., 0., 0., 0., 0., 0.,
          0., 255., 223., 0., 0., 0., 255., 255., 0., 0., 0., 0., 0., 0.,
          0., 0., 0., 255., 223., 0., 0., 0., 255., 255., 0., 0., 0., 0.,
          0., 0., 0., 0., 0., 255., 0., 0., 0., 0., 255., 255., 0., 0.,
          0., 0., 0., 0., 0., 0., 0., 255., 0., 0., 0., 0., 32., 0., 0.,
          0., 0., 0., 0., 0., 0., 0., 0., 255., 0., 0., 0., 0., 255.,
          159., 0., 0., 0., 0., 0., 0., 0., 0., 159., 255., 0., 0., 0.,
          0., 255., 159., 0., 0., 0., 0., 0., 0., 0., 0., 159., 255., 0.,
          0., 0., 0., 255., 85., 0., 0., 0., 0., 0., 0., 0., 0., 255.,
          255., 0., 0., 0., 0., 255., 0., 0., 0., 0., 0., 0., 0., 0., 0.,
          255., 255., 0., 0., 0., 223., 255., 0., 0., 0., 0., 0., 0., 0.,
          0., 0., 255., 255., 8., 5., 0., 224., 255., 0., 0., 0., 0., 0.,
          0., 0., 0., 0., 255., 255., 255., 255., 255., 255., 255., 0.,
          0., 0., 0., 0., 0., 0., 0., 0., 0., 255., 255., 255., 255.,
          255., 223., 0., 0., 0., 0., 0. ]
      - [ 0., 0., 0., 0., 0., 0., 255., 255., 255., 255., 255., 0., 0.,
          0., 0., 0., 0., 0., 0., 0., 0., 255., 255., 255., 255., 255.,
          255., 255., 0., 0., 0., 0., 0., 0., 0., 0., 0., 255., 255., 0.,
          0., 0., 32., 255., 0., 0., 0., 0., 0., 0., 0., 0., 0., 255.,
          255., 0., 0., 0., 255., 255., 0., 0., 0., 0., 0., 0., 0., 0.,
          0., 255., 255., 0., 0., 0., 255., 255., 0., 0., 0., 0., 0., 0.,
          0., 0., 0., 255., 223., 0., 0., 0., 255., 255., 0., 0., 0., 0.,
          0., 0., 0., 0., 0., 255., 0., 0., 0., 0., 255., 186., 0., 0.,
          0., 0., 0., 0., 0., 0., 0., 255., 0., 0., 0., 0., 255., 0., 0.,
          0., 0., 0., 0., 0., 0., 0., 0., 255., 0., 0., 0., 0., 255.,
          168., 0., 0., 0., 0., 0., 0., 0., 0., 159., 255., 0., 0., 0.,
          0., 255., 115., 0., 0., 0., 0., 0., 0., 0., 0., 159., 255., 0.,
          0., 0., 0., 255., 0., 0., 0., 0., 0., 0., 0., 0., 0., 255.,
          255., 0., 0., 0., 0., 255., 0., 0., 0., 0., 0., 0., 0., 0., 0.,
          255., 255., 0., 0., 0., 223., 255., 0., 0., 0., 0., 0., 0., 0.,
          0., 0., 255., 255., 0., 5., 0., 224., 255., 0., 0., 0., 0., 0.,
          0., 0., 0., 0., 255., 255., 255., 255., 255., 255., 255., 0.,
          0., 0., 0., 0., 0., 0., 0., 0., 0., 255., 255., 255., 255.,
          255., 132., 0., 0., 0., 0., 0. ]
      - [ 0., 0., 0., 0., 0., 255., 255., 255., 255., 255., 0., 0., 0.,
          0., 0., 0., 0., 0., 0., 0., 0., 255., 255., 255., 255., 255.,
          255., 0., 0., 0., 0., 0., 0., 0., 0., 0., 0., 255., 0., 0., 0.,
          0., 255., 0., 0., 0., 0., 0., 0., 0., 0., 0., 0., 255., 0., 0.,
          0., 109., 255., 0., 0., 0., 0., 0., 0., 0., 0., 0., 0., 255.,
          0., 0., 0., 109., 255., 0., 0., 0., 0., 0., 0., 0., 0., 0.,
          218., 255., 0., 0., 0., 109., 255., 0., 0., 0., 0., 0., 0., 0.,
          0., 0., 0., 255., 0., 0., 0., 96., 255., 0., 0., 0., 0., 0.,
          0., 0., 0., 0., 0., 109., 0., 0., 0., 0., 255., 0., 0., 0., 0.,
          0., 0., 0., 0., 0., 0., 255., 0., 0., 0., 0., 255., 0., 0., 0.,
          0., 0., 0., 0., 0., 0., 218., 255., 0., 0., 0., 255., 255., 0.,
          0., 0., 0., 0., 0., 0., 0., 0., 218., 255., 0., 0., 0., 255.,
          255., 0., 0., 0., 0., 0., 0., 0., 0., 0., 255., 255., 0., 0.,
          0., 255., 255., 0., 0., 0., 0., 0., 0., 0., 0., 0., 255., 255.,
          0., 0., 0., 255., 255., 0., 0., 0., 0., 0., 0., 0., 0., 0.,
          255., 255., 0., 0., 0., 255., 255., 0., 0., 0., 0., 0., 0., 0.,
          0., 0., 218., 255., 255., 255., 255., 255., 255., 0., 0., 0.,
          0., 0., 0., 0., 0., 0., 0., 255., 255., 255., 255., 255., 0.,
          0., 0., 0., 0., 0. ]
      - [ 0., 0., 0., 0., 0., 255., 255., 255., 255., 255., 0., 0., 0.,
          0., 0., 0., 0., 0., 0., 0., 182., 255., 255., 255., 255., 255.,
          255., 0., 0., 0., 0., 0., 0., 0., 0., 0., 255., 255., 0., 0.,
          0., 0., 255., 0., 0., 0., 0., 0., 0., 0., 0., 0., 255., 255.,
          0., 0., 0., 218., 255., 0., 0., 0., 0., 0., 0., 0., 0., 0.,
          255., 255., 0., 0., 0., 218., 255., 0., 0., 0., 0., 0., 0., 0.,
          0., 0., 255., 255., 0., 0., 0., 255., 255., 0., 0., 0., 0., 0.,
          0., 0., 0., 0., 255., 255., 0., 0., 0., 218., 255., 0., 0., 0.,
          0., 0., 0., 0., 0., 0., 182., 0., 0., 0., 0., 0., 255., 0., 0.,
          0., 0., 0., 0., 0., 0., 0., 255., 222., 0., 0., 0., 0., 255.,
          0., 0., 0., 0., 0., 0., 0., 0., 0., 255., 255., 0., 0., 0.,
          229., 255., 0., 0., 0., 0., 0., 0., 0., 0., 0., 255., 255., 0.,
          0., 0., 255., 255., 0., 0., 0., 0., 0., 0., 0., 0., 0., 255.,
          255., 0., 0., 0., 255., 255., 0., 0., 0., 0., 0., 0., 0., 0.,
          0., 255., 255., 0., 0., 0., 255., 255., 0., 0., 0., 0., 0., 0.,
          0., 0., 0., 255., 255., 5., 0., 0., 255., 255., 0., 0., 0., 0.,
          0., 0., 0., 0., 0., 255., 255., 255., 255., 255., 255., 255.,
          0., 0., 0., 0., 0., 0., 0., 0., 0., 0., 255., 255., 255., 255.,
          255., 0., 0., 0., 0., 0., 0. ]
      - [ 0., 0., 0., 0., 0., 255., 255., 255., 255., 255., 0., 0., 0.,
          0., 0., 0., 0., 0., 0., 0., 0., 255., 255., 255., 255., 255.,
          255., 0., 0., 0., 0., 0., 0., 0., 0., 0., 237., 255., 255.,
          255., 255., 255., 255., 0., 0., 0., 0., 0., 0., 0., 0., 0.,
          237., 255., 0., 0., 0., 255., 255., 0., 0., 0., 0., 0., 0., 0.,
          0., 0., 237., 255., 0., 0., 0., 255., 255., 0., 0., 0., 0., 0.,
          0., 0., 0., 0., 237., 255., 0., 0., 0., 255., 255., 0., 0., 0.,
          0., 0., 0., 0., 0., 0., 245., 255., 0., 0., 0., 255., 255., 0.,
          0., 0., 0., 0., 0., 0., 0., 0., 0., 0., 0., 0., 0., 9., 0., 0.,
          0., 0., 0., 0., 0., 0., 0., 0., 240., 255., 0., 0., 0., 255.,
          255., 0., 0., 0., 0., 0., 0., 0., 0., 0., 255., 255., 0., 0.,
          0., 255., 255., 0., 0., 0., 0., 0., 0., 0., 0., 0., 255., 255.,
          0., 0., 0., 255., 255., 0., 0., 0., 0., 0., 0., 0., 0., 0.,
          255., 255., 0., 0., 0., 255., 255., 0., 0., 0., 0., 0., 0., 0.,
          0., 0., 255., 255., 0., 0., 0., 255., 255., 0., 0., 0., 0., 0.,
          0., 0., 0., 0., 255., 255., 183., 183., 183., 255., 255., 0.,
          0., 0., 0., 0., 0., 0., 0., 0., 255., 255., 255., 255., 255.,
          255., 229., 0., 0., 0., 0., 0., 0., 0., 0., 0., 0., 255., 255.,
          255., 255., 255., 0., 0., 0., 0., 0., 0. ]
      - [ 0., 0., 0., 0., 0., 255., 255., 255., 255., 255., 0., 0., 0.,
          0., 0., 0., 0., 0., 0., 0., 218., 255., 255., 255., 255., 255.,
          255., 0., 0., 0., 0., 0., 0., 0., 0., 0., 255., 255., 255.,
          255., 255., 255., 255., 0., 0., 0., 0., 0., 0., 0., 0., 0.,
          255., 255., 0., 0., 0., 255., 255., 0., 0., 0., 0., 0., 0., 0.,
          0., 0., 255., 255., 0., 0., 0., 255., 255., 0., 0., 0., 0., 0.,
          0., 0., 0., 0., 255., 255., 0., 0., 0., 255., 255., 0., 0., 0.,
          0., 0., 0., 0., 0., 0., 255., 255., 0., 0., 0., 255., 255., 0.,
          0., 0., 0., 0., 0., 0., 0., 0., 0., 0., 0., 0., 0., 17., 34.,
          0., 0., 0., 0., 0., 0., 0., 0., 0., 255., 132., 0., 0., 0.,
          255., 255., 0., 0., 0., 0., 0., 0., 0., 0., 0., 255., 255., 0.,
          0., 0., 255., 255., 0., 0., 0., 0., 0., 0., 0., 0., 0., 255.,
          255., 0., 0., 0., 255., 255., 0., 0., 0., 0., 0., 0., 0., 0.,
          0., 255., 255., 0., 0., 0., 255., 255., 0., 0., 0., 0., 0., 0.,
          0., 0., 0., 255., 255., 0., 0., 0., 255., 255., 0., 0., 0., 0.,
          0., 0., 0., 0., 0., 255., 255., 183., 183., 183., 255., 255.,
          0., 0., 0., 0., 0., 0., 0., 0., 0., 255., 255., 255., 255.,
          255., 255., 212., 0., 0., 0., 0., 0., 0., 0., 0., 0., 0., 255.,
          255., 255., 255., 255., 0., 0., 0., 0., 0., 0. ]
      - [ 0., 0., 0., 0., 0., 255., 255., 255., 255., 255., 0., 0., 0.,
          0., 0., 0., 0., 0., 0., 0., 0., 255., 255., 255., 255., 255.,
          255., 0., 0., 0., 0., 0., 0., 0., 0., 0., 0., 255., 255., 255.,
          255., 255., 255., 0., 0., 0., 0., 0., 0., 0., 0., 0., 237.,
          255., 0., 0., 0., 255., 255., 0., 0., 0., 0., 0., 0., 0., 0.,
          0., 237., 255., 0., 0., 0., 255., 255., 0., 0., 0., 0., 0., 0.,
          0., 0., 0., 255., 255., 0., 0., 0., 255., 255., 0., 0., 0., 0.,
          0., 0., 0., 0., 0., 245., 255., 0., 0., 0., 255., 255., 0., 0.,
          0., 0., 0., 0., 0., 0., 0., 0., 9., 0., 0., 0., 55., 37., 0.,
          0., 0., 0., 0., 0., 0., 0., 0., 240., 255., 0., 0., 0., 255.,
          255., 0., 0., 0., 0., 0., 0., 0., 0., 0., 255., 255., 0., 0.,
          0., 255., 255., 0., 0., 0., 0., 0., 0., 0., 0., 0., 255., 255.,
          0., 0., 0., 255., 255., 0., 0., 0., 0., 0., 0., 0., 0., 0.,
          255., 255., 0., 0., 0., 255., 255., 0., 0., 0., 0., 0., 0., 0.,
          0., 0., 255., 255., 0., 0., 0., 255., 255., 0., 0., 0., 0., 0.,
          0., 0., 0., 0., 255., 255., 183., 183., 209., 255., 255., 0.,
          0., 0., 0., 0., 0., 0., 0., 0., 255., 255., 255., 255., 255.,
          255., 229., 0., 0., 0., 0., 0., 0., 0., 0., 0., 0., 255., 255.,
          255., 255., 255., 0., 0., 0., 0., 0., 0. ]
      - [ 0., 0., 0., 0., 0., 255., 255., 255., 255., 255., 0., 0., 0.,
          0., 0., 0., 0., 0., 0., 0., 0., 255., 255., 255., 255., 255.,
          255., 0., 0., 0., 0., 0., 0., 0., 0., 0., 237., 255., 255.,
          255., 255., 255., 255., 0., 0., 0., 0., 0., 0., 0., 0., 0.,
          237., 255., 0., 0., 0., 255., 255., 0., 0., 0., 0., 0., 0., 0.,
          0., 0., 237., 255., 0., 0., 0., 255., 255., 0., 0., 0., 0., 0.,
          0., 0., 0., 0., 255., 255., 0., 0., 0., 255., 255., 0., 0., 0.,
          0., 0., 0., 0., 0., 0., 255., 255., 0., 0., 0., 255., 255., 0.,
          0., 0., 0., 0., 0., 0., 0., 0., 0., 0., 0., 0., 0., 9., 0., 0.,
          0., 0., 0., 0., 0., 0., 0., 0., 240., 255., 0., 0., 0., 255.,
          255., 0., 0., 0., 0., 0., 0., 0., 0., 0., 255., 255., 0., 0.,
          0., 255., 255., 0., 0., 0., 0., 0., 0., 0., 0., 0., 255., 255.,
          0., 0., 0., 255., 255., 0., 0., 0., 0., 0., 0., 0., 0., 0.,
          255., 255., 0., 0., 0., 255., 255., 0., 0., 0., 0., 0., 0., 0.,
          0., 0., 255., 255., 0., 0., 0., 255., 255., 0., 0., 0., 0., 0.,
          0., 0., 0., 0., 255., 255., 183., 183., 255., 255., 255., 0.,
          0., 0., 0., 0., 0., 0., 0., 0., 255., 255., 255., 255., 255.,
          255., 229., 0., 0., 0., 0., 0., 0., 0., 0., 0., 0., 255., 255.,
          255., 255., 255., 0., 0., 0., 0., 0., 0. ]
      - [ 0., 0., 0., 0., 0., 255., 255., 255., 255., 255., 0., 0., 0.,
          0., 0., 0., 0., 0., 0., 0., 18., 255., 255., 255., 255., 255.,
          255., 0., 0., 0., 0., 0., 0., 0., 0., 0., 255., 255., 255.,
          255., 255., 255., 255., 0., 0., 0., 0., 0., 0., 0., 0., 0.,
          255., 255., 0., 0., 0., 255., 255., 0., 0., 0., 0., 0., 0., 0.,
          0., 0., 255., 255., 0., 0., 0., 255., 255., 0., 0., 0., 0., 0.,
          0., 0., 0., 0., 255., 255., 0., 0., 0., 255., 255., 0., 0., 0.,
          0., 0., 0., 0., 0., 0., 255., 255., 0., 0., 0., 255., 255., 0.,
          0., 0., 0., 0., 0., 0., 0., 0., 4., 255., 0., 0., 0., 255.,
          255., 0., 0., 0., 0., 0., 0., 0., 0., 0., 255., 255., 0., 0.,
          0., 255., 255., 0., 0., 0., 0., 0., 0., 0., 0., 0., 255., 255.,
          0., 0., 0., 255., 255., 0., 0., 0., 0., 0., 0., 0., 0., 0.,
          255., 255., 0., 0., 0., 255., 255., 0., 0., 0., 0., 0., 0., 0.,
          0., 0., 255., 255., 0., 0., 0., 255., 255., 0., 0., 0., 0., 0.,
          0., 0., 0., 0., 255., 255., 0., 0., 0., 255., 255., 0., 0., 0.,
          0., 0., 0., 0., 0., 0., 255., 255., 255., 255., 255., 255.,
          255., 0., 0., 0., 0., 0., 0., 0., 0., 0., 255., 255., 255.,
          255., 255., 255., 255., 0., 0., 0., 0., 0., 0., 0., 0., 0., 0.,
          255., 255., 255., 255., 255., 0., 0., 0., 0., 0., 0. ]
      - [ 0., 0., 0., 0., 0., 255., 255., 255., 255., 255., 0., 0., 0.,
          0., 0., 0., 0., 0., 0., 0., 18., 255., 255., 255., 255., 255.,
          255., 0., 0., 0., 0., 0., 0., 0., 0., 0., 255., 255., 255.,
          255., 255., 255., 255., 0., 0., 0., 0., 0., 0., 0., 0., 0.,
          25., 255., 164., 0., 0., 255., 255., 0., 0., 0., 0., 0., 0.,
          0., 0., 0., 255., 255., 0., 0., 0., 255., 255., 0., 0., 0., 0.,
          0., 0., 0., 0., 0., 255., 255., 0., 0., 0., 255., 255., 0., 0.,
          0., 0., 0., 0., 0., 0., 0., 255., 255., 0., 0., 0., 255., 255.,
          0., 0., 0., 0., 0., 0., 0., 0., 0., 4., 212., 0., 0., 0., 255.,
          255., 0., 0., 0., 0., 0., 0., 0., 0., 0., 255., 255., 0., 0.,
          0., 255., 255., 0., 0., 0., 0., 0., 0., 0., 0., 0., 255., 255.,
          0., 0., 0., 255., 255., 0., 0., 0., 0., 0., 0., 0., 0., 0.,
          255., 255., 0., 0., 0., 255., 255., 0., 0., 0., 0., 0., 0., 0.,
          0., 0., 255., 255., 0., 0., 0., 255., 255., 0., 0., 0., 0., 0.,
          0., 0., 0., 0., 255., 255., 0., 0., 0., 255., 255., 0., 0., 0.,
          0., 0., 0., 0., 0., 0., 255., 255., 255., 255., 255., 255.,
          255., 0., 0., 0., 0., 0., 0., 0., 0., 0., 255., 255., 255.,
          255., 255., 255., 255., 0., 0., 0., 0., 0., 0., 0., 0., 0., 0.,
          255., 255., 255., 255., 255., 0., 0., 0., 0., 0., 0. ]
      - [ 0., 0., 0., 0., 0., 255., 255., 255., 255., 255., 0., 0., 0.,
          0., 0., 0., 0., 0., 0., 0., 18., 255., 255., 255., 255., 255.,
          255., 0., 0., 0., 0., 0., 0., 0., 0., 0., 18., 255., 255.,
          255., 255., 255., 255., 0., 0., 0., 0., 0., 0., 0., 0., 0.,
          255., 255., 164., 0., 0., 255., 255., 0., 0., 0., 0., 0., 0.,
          0., 0., 0., 255., 255., 0., 0., 0., 255., 255., 0., 0., 0., 0.,
          0., 0., 0., 0., 0., 255., 255., 0., 0., 0., 255., 255., 0., 0.,
          0., 0., 0., 0., 0., 0., 0., 255., 255., 0., 0., 0., 255., 255.,
          0., 0., 0., 0., 0., 0., 0., 0., 0., 4., 212., 0., 0., 0., 255.,
          70., 0., 0., 0., 0., 0., 0., 0., 0., 0., 255., 255., 0., 0.,
          0., 255., 255., 0., 0., 0., 0., 0., 0., 0., 0., 0., 255., 255.,
          0., 0., 0., 255., 255., 0., 0., 0., 0., 0., 0., 0., 0., 0.,
          255., 255., 0., 0., 0., 255., 255., 0., 0., 0., 0., 0., 0., 0.,
          0., 0., 255., 255., 0., 0., 0., 255., 255., 0., 0., 0., 0., 0.,
          0., 0., 0., 0., 255., 255., 0., 0., 0., 255., 255., 0., 0., 0.,
          0., 0., 0., 0., 0., 0., 255., 255., 255., 255., 255., 255.,
          255., 0., 0., 0., 0., 0., 0., 0., 0., 0., 255., 255., 255.,
          255., 255., 255., 255., 0., 0., 0., 0., 0., 0., 0., 0., 0., 0.,
          255., 255., 255., 255., 255., 0., 0., 0., 0., 0., 0. ]
      - [ 0., 0., 0., 0., 0., 255., 255., 255., 255., 255., 0., 0., 0.,
          0., 0., 0., 0., 0., 0., 0., 0., 255., 255., 255., 255., 255.,
          255., 0., 0., 0., 0., 0., 0., 0., 0., 0., 61., 255., 255.,
          255., 255., 255., 255., 0., 0., 0., 0., 0., 0., 0., 0., 0.,
          218., 255., 0., 0., 0., 255., 255., 0., 0., 0., 0., 0., 0., 0.,
          0., 0., 255., 255., 0., 0., 0., 255., 255., 0., 0., 0., 0., 0.,
          0., 0., 0., 0., 255., 255., 0., 0., 0., 255., 255., 0., 0., 0.,
          0., 0., 0., 0., 0., 0., 255., 255., 0., 0., 0., 255., 255., 0.,
          0., 0., 0., 0., 0., 0., 0., 0., 0., 0., 0., 0., 0., 17., 218.,
          0., 0., 0., 0., 0., 0., 0., 0., 0., 224., 132., 0., 0., 0.,
          132., 255., 0., 0., 0., 0., 0., 0., 0., 0., 0., 255., 255., 0.,
          0., 0., 255., 255., 0., 0., 0., 0., 0., 0., 0., 0., 0., 255.,
          255., 0., 0., 0., 255., 255., 0., 0., 0., 0., 0., 0., 0., 0.,
          0., 255., 255., 0., 0., 0., 255., 255., 0., 0., 0., 0., 0., 0.,
          0., 0., 0., 255., 255., 0., 0., 0., 255., 255., 0., 0., 0., 0.,
          0., 0., 0., 0., 0., 255., 255., 0., 183., 183., 255., 255., 0.,
          0., 0., 0., 0., 0., 0., 0., 0., 255., 255., 255., 255., 255.,
          255., 218., 0., 0., 0., 0., 0., 0., 0., 0., 0., 0., 255., 255.,
          255., 255., 255., 0., 0., 0., 0., 0., 0. ]
      - [ 0., 0., 0., 0., 0., 255., 255., 255., 255., 255., 0., 0., 0.,
          0., 0., 0., 0., 0., 0., 0., 0., 255., 255., 255., 255., 255.,
          255., 0., 0., 0., 0., 0., 0., 0., 0., 0., 0., 255., 0., 48.,
          0., 48., 255., 0., 0., 0., 0., 0., 0., 0., 0., 0., 182., 255.,
          0., 0., 0., 0., 255., 0., 0., 0., 0., 0., 0., 0., 0., 0., 255.,
          255., 0., 0., 0., 218., 255., 0., 0., 0., 0., 0., 0., 0., 0.,
          0., 255., 255., 0., 0., 0., 255., 255., 0., 0., 0., 0., 0., 0.,
          0., 0., 0., 255., 218., 0., 0., 0., 218., 255., 0., 0., 0., 0.,
          0., 0., 0., 0., 0., 0., 0., 0., 0., 0., 0., 182., 0., 0., 0.,
          0., 0., 0., 0., 0., 0., 182., 0., 0., 0., 0., 0., 255., 0., 0.,
          0., 0., 0., 0., 0., 0., 0., 255., 255., 0., 0., 0., 244., 255.,
          0., 0., 0., 0., 0., 0., 0., 0., 0., 255., 255., 0., 0., 0.,
          255., 255., 0., 0., 0., 0., 0., 0., 0., 0., 0., 255., 255., 0.,
          0., 0., 255., 255., 0., 0., 0., 0., 0., 0., 0., 0., 0., 255.,
          218., 0., 0., 0., 255., 255., 0., 0., 0., 0., 0., 0., 0., 0.,
          0., 255., 218., 0., 0., 0., 255., 255., 0., 0., 0., 0., 0., 0.,
          0., 0., 0., 255., 255., 255., 255., 255., 255., 182., 0., 0.,
          0., 0., 0., 0., 0., 0., 0., 0., 255., 255., 255., 255., 255.,
          0., 0., 0., 0., 0., 0. ]
      - [ 0., 0., 0., 0., 0., 255., 255., 255., 255., 255., 0., 0., 0.,
          0., 0., 0., 0., 0., 0., 0., 0., 255., 255., 255., 255., 255.,
          255., 0., 0., 0., 0., 0., 0., 0., 0., 0., 0., 255., 48., 0.,
          0., 218., 255., 0., 0., 0., 0., 0., 0., 0., 0., 0., 182., 255.,
          0., 0., 0., 218., 255., 0., 0., 0., 0., 0., 0., 0., 0., 0.,
          255., 255., 0., 0., 0., 218., 255., 0., 0., 0., 0., 0., 0., 0.,
          0., 0., 255., 255., 0., 0., 0., 255., 255., 0., 0., 0., 0., 0.,
          0., 0., 0., 0., 232., 218., 0., 0., 0., 218., 255., 0., 0., 0.,
          0., 0., 0., 0., 0., 0., 0., 0., 0., 0., 0., 0., 182., 0., 0.,
          0., 0., 0., 0., 0., 0., 0., 182., 0., 0., 0., 0., 0., 255., 0.,
          0., 0., 0., 0., 0., 0., 0., 0., 255., 255., 0., 0., 0., 218.,
          255., 0., 0., 0., 0., 0., 0., 0., 0., 0., 255., 255., 0., 0.,
          0., 255., 255., 0., 0., 0., 0., 0., 0., 0., 0., 0., 255., 255.,
          0., 0., 0., 255., 255., 0., 0., 0., 0., 0., 0., 0., 0., 0.,
          255., 218., 0., 0., 0., 255., 255., 0., 0., 0., 0., 0., 0., 0.,
          0., 0., 255., 225., 0., 0., 0., 255., 255., 0., 0., 0., 0., 0.,
          0., 0., 0., 0., 255., 255., 255., 255., 255., 255., 182., 0.,
          0., 0., 0., 0., 0., 0., 0., 0., 0., 255., 255., 255., 255.,
          255., 0., 0., 0., 0., 0., 0. ]
      - [ 0., 0., 0., 0., 0., 255., 255., 255., 255., 255., 0., 0., 0.,
          0., 0., 0., 0., 0., 0., 0., 0., 255., 255., 255., 255., 255.,
          255., 0., 0., 0., 0., 0., 0., 0., 0., 0., 182., 255., 48., 48.,
          0., 0., 255., 0., 0., 0., 0., 0., 0., 0., 0., 0., 182., 255.,
          0., 0., 0., 0., 255., 0., 0., 0., 0., 0., 0., 0., 0., 0., 255.,
          255., 0., 0., 0., 221., 255., 0., 0., 0., 0., 0., 0., 0., 0.,
          0., 255., 255., 0., 0., 0., 255., 255., 0., 0., 0., 0., 0., 0.,
          0., 0., 0., 255., 218., 0., 0., 0., 244., 255., 0., 0., 0., 0.,
          0., 0., 0., 0., 0., 0., 0., 0., 0., 0., 0., 182., 0., 0., 0.,
          0., 0., 0., 0., 0., 0., 182., 0., 0., 0., 0., 0., 255., 0., 0.,
          0., 0., 0., 0., 0., 0., 0., 255., 255., 0., 0., 0., 218., 255.,
          0., 0., 0., 0., 0., 0., 0., 0., 0., 255., 255., 0., 0., 0.,
          255., 255., 0., 0., 0., 0., 0., 0., 0., 0., 0., 255., 255., 0.,
          0., 0., 255., 255., 0., 0., 0., 0., 0., 0., 0., 0., 0., 255.,
          218., 0., 0., 0., 255., 255., 0., 0., 0., 0., 0., 0., 0., 0.,
          0., 255., 218., 0., 0., 0., 255., 255., 0., 0., 0., 0., 0., 0.,
          0., 0., 0., 255., 255., 255., 255., 255., 255., 182., 0., 0.,
          0., 0., 0., 0., 0., 0., 0., 0., 255., 255., 255., 255., 255.,
          0., 0., 0., 0., 0., 0. ]
      - [ 0., 0., 0., 0., 0., 255., 255., 255., 255., 255., 0., 0., 0.,
          0., 0., 0., 0., 0., 0., 0., 0., 255., 255., 255., 255., 255.,
          255., 0., 0., 0., 0., 0., 0., 0., 0., 0., 182., 255., 48., 48.,
          0., 0., 255., 0., 0., 0., 0., 0., 0., 0., 0., 0., 182., 255.,
          0., 0., 0., 0., 255., 0., 0., 0., 0., 0., 0., 0., 0., 0., 255.,
          255., 0., 0., 0., 218., 255., 0., 0., 0., 0., 0., 0., 0., 0.,
          0., 255., 255., 0., 0., 0., 255., 255., 0., 0., 0., 0., 0., 0.,
          0., 0., 0., 232., 218., 0., 0., 0., 218., 255., 0., 0., 0., 0.,
          0., 0., 0., 0., 0., 0., 0., 0., 0., 0., 0., 182., 0., 0., 0.,
          0., 0., 0., 0., 0., 0., 182., 0., 0., 0., 0., 0., 255., 0., 0.,
          0., 0., 0., 0., 0., 0., 0., 255., 255., 0., 0., 0., 255., 255.,
          0., 0., 0., 0., 0., 0., 0., 0., 0., 255., 255., 0., 0., 0.,
          255., 255., 0., 0., 0., 0., 0., 0., 0., 0., 0., 255., 255., 0.,
          0., 0., 255., 255., 0., 0., 0., 0., 0., 0., 0., 0., 0., 255.,
          255., 0., 0., 0., 255., 255., 0., 0., 0., 0., 0., 0., 0., 0.,
          0., 255., 255., 0., 0., 0., 255., 255., 0., 0., 0., 0., 0., 0.,
          0., 0., 0., 255., 255., 255., 255., 255., 255., 182., 0., 0.,
          0., 0., 0., 0., 0., 0., 0., 0., 255., 255., 255., 255., 255.,
          0., 0., 0., 0., 0., 0. ]
      - [ 0., 0., 0., 0., 0., 255., 255., 255., 255., 255., 0., 0., 0.,
          0., 0., 0., 0., 0., 0., 0., 255., 255., 255., 255., 255., 255.,
          255., 0., 0., 0., 0., 0., 0., 0., 0., 0., 255., 255., 255.,
          255., 255., 255., 255., 0., 0., 0., 0., 0., 0., 0., 0., 0.,
          255., 255., 0., 0., 0., 255., 255., 0., 0., 0., 0., 0., 0., 0.,
          0., 0., 255., 255., 0., 0., 0., 255., 255., 0., 0., 0., 0., 0.,
          0., 0., 0., 0., 255., 255., 0., 0., 0., 255., 255., 0., 0., 0.,
          0., 0., 0., 0., 0., 0., 255., 255., 0., 0., 0., 255., 255., 0.,
          0., 0., 0., 0., 0., 0., 0., 0., 0., 255., 0., 0., 0., 255.,
          255., 0., 0., 0., 0., 0., 0., 0., 0., 0., 255., 255., 0., 0.,
          0., 255., 255., 0., 0., 0., 0., 0., 0., 0., 0., 0., 255., 255.,
          0., 0., 0., 255., 255., 0., 0., 0., 0., 0., 0., 0., 0., 0.,
          255., 255., 0., 0., 0., 255., 255., 0., 0., 0., 0., 0., 0., 0.,
          0., 0., 255., 255., 0., 0., 0., 255., 255., 0., 0., 0., 0., 0.,
          0., 0., 0., 0., 255., 255., 0., 0., 0., 255., 255., 0., 0., 0.,
          0., 0., 0., 0., 0., 0., 255., 255., 255., 255., 255., 255.,
          255., 0., 0., 0., 0., 0., 0., 0., 0., 0., 255., 255., 255.,
          255., 255., 255., 255., 0., 0., 0., 0., 0., 0., 0., 0., 0., 0.,
          255., 255., 255., 255., 255., 0., 0., 0., 0., 0., 0. ]
      - [ 0., 0., 0., 0., 0., 255., 255., 255., 255., 255., 0., 0., 0.,
          0., 0., 0., 0., 0., 0., 0., 18., 255., 255., 255., 255., 255.,
          255., 0., 0., 0., 0., 0., 0., 0., 0., 0., 18., 255., 255.,
          255., 255., 255., 255., 0., 0., 0., 0., 0., 0., 0., 0., 0.,
          18., 255., 164., 0., 0., 255., 255., 0., 0., 0., 0., 0., 0.,
          0., 0., 0., 255., 255., 0., 0., 0., 255., 255., 0., 0., 0., 0.,
          0., 0., 0., 0., 0., 255., 255., 0., 0., 0., 255., 255., 0., 0.,
          0., 0., 0., 0., 0., 0., 0., 255., 255., 0., 0., 0., 255., 255.,
          0., 0., 0., 0., 0., 0., 0., 0., 0., 0., 255., 0., 0., 0., 175.,
          255., 0., 0., 0., 0., 0., 0., 0., 0., 0., 255., 255., 0., 0.,
          0., 255., 255., 0., 0., 0., 0., 0., 0., 0., 0., 0., 255., 255.,
          0., 0., 0., 255., 255., 0., 0., 0., 0., 0., 0., 0., 0., 0.,
          255., 255., 0., 0., 0., 255., 255., 0., 0., 0., 0., 0., 0., 0.,
          0., 0., 255., 255., 0., 0., 0., 255., 255., 0., 0., 0., 0., 0.,
          0., 0., 0., 0., 255., 255., 0., 0., 0., 255., 255., 0., 0., 0.,
          0., 0., 0., 0., 0., 0., 255., 255., 255., 255., 255., 255.,
          255., 0., 0., 0., 0., 0., 0., 0., 0., 0., 255., 255., 255.,
          255., 255., 255., 255., 0., 0., 0., 0., 0., 0., 0., 0., 0., 0.,
          255., 255., 255., 255., 255., 0., 0., 0., 0., 0., 0. ]
      - [ 0., 0., 0., 0., 0., 255., 255., 255., 255., 255., 0., 0., 0.,
          0., 0., 0., 0., 0., 0., 0., 91., 255., 255., 255., 255., 255.,
          255., 0., 0., 0., 0., 0., 0., 0., 0., 0., 255., 255., 255.,
          255., 255., 255., 255., 0., 0., 0., 0., 0., 0., 0., 0., 0.,
          255., 255., 255., 0., 0., 255., 255., 0., 0., 0., 0., 0., 0.,
          0., 0., 0., 255., 255., 73., 0., 0., 255., 255., 0., 0., 0.,
          0., 0., 0., 0., 0., 0., 255., 255., 73., 0., 0., 255., 255.,
          0., 0., 0., 0., 0., 0., 0., 0., 0., 255., 255., 73., 0., 0.,
          255., 255., 0., 0., 0., 0., 0., 0., 0., 0., 0., 200., 255., 0.,
          0., 0., 255., 255., 0., 0., 0., 0., 0., 0., 0., 0., 0., 255.,
          255., 0., 0., 0., 255., 255., 0., 0., 0., 0., 0., 0., 0., 0.,
          0., 255., 255., 0., 0., 0., 255., 255., 0., 0., 0., 0., 0., 0.,
          0., 0., 0., 255., 255., 0., 0., 73., 255., 255., 0., 0., 0.,
          0., 0., 0., 0., 0., 0., 255., 255., 0., 0., 73., 255., 255.,
          0., 0., 0., 0., 0., 0., 0., 0., 0., 255., 255., 0., 0., 73.,
          255., 255., 0., 0., 0., 0., 0., 0., 0., 0., 0., 255., 255.,
          255., 255., 255., 255., 255., 0., 0., 0., 0., 0., 0., 0., 0.,
          0., 255., 255., 255., 255., 255., 255., 255., 0., 0., 0., 0.,
          0., 0., 0., 0., 0., 0., 255., 255., 255., 255., 255., 0., 0.,
          0., 0., 0., 0. ]
      - [ 0., 0., 0., 0., 0., 255., 255., 255., 255., 255., 0., 0., 0.,
          0., 0., 0., 0., 0., 0., 0., 36., 255., 255., 255., 255., 255.,
          255., 0., 0., 0., 0., 0., 0., 0., 0., 0., 200., 255., 255.,
          255., 255., 255., 255., 0., 0., 0., 0., 0., 0., 0., 0., 0.,
          255., 255., 255., 0., 0., 255., 255., 0., 0., 0., 0., 0., 0.,
          0., 0., 0., 255., 255., 73., 0., 0., 255., 255., 0., 0., 0.,
          0., 0., 0., 0., 0., 0., 255., 255., 73., 0., 0., 255., 255.,
          0., 0., 0., 0., 0., 0., 0., 0., 0., 255., 255., 73., 0., 0.,
          255., 255., 0., 0., 0., 0., 0., 0., 0., 0., 0., 200., 255., 0.,
          0., 0., 255., 255., 0., 0., 0., 0., 0., 0., 0., 0., 0., 255.,
          255., 0., 0., 0., 255., 255., 0., 0., 0., 0., 0., 0., 0., 0.,
          0., 255., 255., 0., 0., 0., 255., 255., 0., 0., 0., 0., 0., 0.,
          0., 0., 0., 255., 255., 0., 0., 73., 255., 255., 0., 0., 0.,
          0., 0., 0., 0., 0., 0., 255., 255., 0., 0., 73., 255., 255.,
          0., 0., 0., 0., 0., 0., 0., 0., 0., 255., 255., 0., 0., 73.,
          255., 255., 0., 0., 0., 0., 0., 0., 0., 0., 0., 255., 255.,
          255., 255., 255., 255., 255., 0., 0., 0., 0., 0., 0., 0., 0.,
          0., 255., 255., 255., 255., 255., 255., 255., 0., 0., 0., 0.,
          0., 0., 0., 0., 0., 0., 255., 255., 255., 255., 255., 0., 0.,
          0., 0., 0., 0. ]
      - [ 0., 0., 0., 0., 0., 0., 255., 255., 255., 255., 255., 0., 0.,
          0., 0., 0., 0., 0., 0., 0., 0., 255., 255., 255., 255., 255.,
          255., 255., 0., 0., 0., 0., 0., 0., 0., 0., 0., 255., 255.,
          255., 223., 223., 255., 255., 0., 0., 0., 0., 0., 0., 0., 0.,
          0., 255., 255., 0., 0., 0., 255., 255., 0., 0., 0., 0., 0., 0.,
          0., 0., 0., 255., 255., 0., 0., 0., 255., 255., 0., 0., 0., 0.,
          0., 0., 0., 0., 0., 255., 223., 0., 0., 0., 255., 255., 0., 0.,
          0., 0., 0., 0., 0., 0., 0., 255., 0., 0., 0., 0., 255., 255.,
          0., 0., 0., 0., 0., 0., 0., 0., 0., 255., 0., 0., 0., 0., 255.,
          0., 0., 0., 0., 0., 0., 0., 0., 0., 0., 255., 0., 0., 0., 0.,
          255., 159., 0., 0., 0., 0., 0., 0., 0., 0., 159., 255., 0., 0.,
          0., 0., 255., 159., 0., 0., 0., 0., 0., 0., 0., 0., 255., 255.,
          0., 0., 0., 28., 255., 159., 0., 0., 0., 0., 0., 0., 0., 0.,
          255., 255., 0., 0., 0., 223., 255., 159., 0., 0., 0., 0., 0.,
          0., 0., 0., 255., 255., 0., 0., 0., 223., 255., 0., 0., 0., 0.,
          0., 0., 0., 0., 0., 255., 255., 0., 0., 223., 251., 255., 0.,
          0., 0., 0., 0., 0., 0., 0., 0., 255., 255., 255., 255., 255.,
          255., 255., 0., 0., 0., 0., 0., 0., 0., 0., 0., 0., 255., 255.,
          255., 255., 255., 223., 0., 0., 0., 0., 0. ]
      - [ 0., 0., 0., 0., 0., 0., 255., 255., 255., 255., 255., 0., 0.,
          0., 0., 0., 0., 0., 0., 0., 0., 255., 255., 255., 255., 255.,
          255., 255., 0., 0., 0., 0., 0., 0., 0., 0., 0., 255., 255.,
          223., 223., 223., 255., 255., 0., 0., 0., 0., 0., 0., 0., 0.,
          0., 255., 255., 0., 0., 0., 255., 255., 0., 0., 0., 0., 0., 0.,
          0., 0., 0., 255., 255., 0., 0., 0., 255., 255., 0., 0., 0., 0.,
          0., 0., 0., 0., 0., 255., 223., 0., 0., 0., 255., 255., 0., 0.,
          0., 0., 0., 0., 0., 0., 0., 255., 0., 0., 0., 0., 255., 255.,
          0., 0., 0., 0., 0., 0., 0., 0., 0., 255., 0., 0., 0., 0., 255.,
          0., 0., 0., 0., 0., 0., 0., 0., 0., 0., 255., 0., 0., 0., 0.,
          255., 159., 0., 0., 0., 0., 0., 0., 0., 0., 243., 255., 0., 0.,
          0., 0., 255., 171., 0., 0., 0., 0., 0., 0., 0., 0., 255., 255.,
          0., 0., 0., 0., 255., 159., 0., 0., 0., 0., 0., 0., 0., 0.,
          255., 255., 0., 0., 0., 223., 255., 159., 0., 0., 0., 0., 0.,
          0., 0., 0., 255., 255., 0., 0., 0., 223., 255., 0., 0., 0., 0.,
          0., 0., 0., 0., 0., 255., 255., 0., 0., 223., 251., 255., 0.,
          0., 0., 0., 0., 0., 0., 0., 0., 255., 255., 255., 255., 255.,
          255., 255., 0., 0., 0., 0., 0., 0., 0., 0., 0., 0., 255., 255.,
          255., 255., 255., 223., 0., 0., 0., 0., 0. ]
      - [ 0., 0., 0., 0., 0., 186., 255., 255., 255., 255., 0., 0., 0.,
          0., 0., 0., 0., 0., 0., 0., 0., 255., 255., 255., 255., 255.,
          255., 0., 0., 0., 0., 0., 0., 0., 0., 0., 13., 255., 255.,
          255., 255., 255., 255., 0., 0., 0., 0., 0., 0., 0., 0., 0., 0.,
          255., 0., 0., 0., 255., 255., 0., 0., 0., 0., 0., 0., 0., 0.,
          0., 0., 255., 0., 0., 0., 255., 255., 0., 0., 0., 0., 0., 0.,
          0., 0., 0., 18., 255., 0., 0., 0., 255., 255., 0., 0., 0., 0.,
          0., 0., 0., 0., 0., 18., 255., 0., 0., 0., 255., 255., 0., 0.,
          0., 0., 0., 0., 0., 0., 0., 0., 0., 0., 0., 0., 200., 18., 0.,
          0., 0., 0., 0., 0., 0., 0., 0., 18., 255., 0., 0., 0., 255.,
          255., 0., 0., 0., 0., 0., 0., 0., 0., 0., 255., 255., 0., 0.,
          0., 255., 255., 0., 0., 0., 0., 0., 0., 0., 0., 0., 255., 255.,
          0., 0., 0., 255., 255., 0., 0., 0., 0., 0., 0., 0., 0., 0.,
          255., 255., 0., 0., 0., 255., 255., 0., 0., 0., 0., 0., 0., 0.,
          0., 0., 255., 255., 0., 0., 0., 255., 18., 0., 0., 0., 0., 0.,
          0., 0., 0., 0., 255., 255., 183., 183., 255., 255., 18., 0.,
          0., 0., 0., 0., 0., 0., 0., 0., 255., 255., 255., 255., 255.,
          255., 0., 0., 0., 0., 0., 0., 0., 0., 0., 0., 0., 255., 255.,
          255., 255., 255., 0., 0., 0., 0., 0., 0. ]
      - [ 0., 0., 0., 0., 0., 0., 255., 255., 255., 255., 255., 0., 0.,
          0., 0., 0., 0., 0., 0., 0., 0., 255., 255., 255., 255., 255.,
          255., 255., 0., 0., 0., 0., 0., 0., 0., 0., 0., 255., 255.,
          255., 255., 255., 255., 255., 0., 0., 0., 0., 0., 0., 0., 0.,
          0., 255., 255., 0., 0., 0., 255., 255., 0., 0., 0., 0., 0., 0.,
          0., 0., 0., 255., 255., 0., 0., 0., 255., 255., 0., 0., 0., 0.,
          0., 0., 0., 0., 0., 255., 223., 0., 0., 0., 255., 255., 0., 0.,
          0., 0., 0., 0., 0., 0., 0., 255., 0., 0., 0., 0., 255., 255.,
          0., 0., 0., 0., 0., 0., 0., 0., 0., 255., 0., 0., 0., 0., 255.,
          0., 0., 0., 0., 0., 0., 0., 0., 0., 0., 255., 0., 0., 0., 0.,
          255., 159., 0., 0., 0., 0., 0., 0., 0., 0., 159., 255., 0., 0.,
          0., 0., 255., 255., 0., 0., 0., 0., 0., 0., 0., 0., 255., 255.,
          0., 0., 0., 0., 255., 159., 0., 0., 0., 0., 0., 0., 0., 0.,
          255., 255., 0., 0., 0., 223., 255., 159., 0., 0., 0., 0., 0.,
          0., 0., 0., 255., 255., 0., 0., 0., 223., 255., 0., 0., 0., 0.,
          0., 0., 0., 0., 0., 255., 255., 0., 223., 223., 251., 255., 0.,
          0., 0., 0., 0., 0., 0., 0., 0., 255., 255., 255., 255., 255.,
          255., 255., 0., 0., 0., 0., 0., 0., 0., 0., 0., 0., 255., 255.,
          255., 255., 255., 223., 0., 0., 0., 0., 0. ]
      - [ 0., 0., 0., 0., 0., 255., 255., 255., 255., 255., 0., 0., 0.,
          0., 0., 0., 0., 0., 0., 0., 0., 255., 255., 255., 255., 255.,
          255., 0., 0., 0., 0., 0., 0., 0., 0., 0., 0., 255., 255., 255.,
          223., 255., 255., 0., 0., 0., 0., 0., 0., 0., 0., 0., 0., 255.,
          0., 0., 0., 255., 255., 0., 0., 0., 0., 0., 0., 0., 0., 0.,
          255., 255., 0., 0., 0., 255., 255., 0., 0., 0., 0., 0., 0., 0.,
          0., 0., 255., 255., 0., 0., 0., 255., 255., 0., 0., 0., 0., 0.,
          0., 0., 0., 0., 255., 255., 0., 0., 0., 255., 255., 0., 0., 0.,
          0., 0., 0., 0., 0., 0., 0., 0., 0., 0., 0., 255., 0., 0., 0.,
          0., 0., 0., 0., 0., 0., 0., 255., 255., 0., 0., 0., 255., 255.,
          0., 0., 0., 0., 0., 0., 0., 0., 0., 255., 255., 0., 0., 0.,
          255., 255., 0., 0., 0., 0., 0., 0., 0., 0., 0., 255., 255., 0.,
          0., 0., 255., 255., 0., 0., 0., 0., 0., 0., 0., 0., 0., 255.,
          255., 0., 0., 0., 255., 255., 0., 0., 0., 0., 0., 0., 0., 0.,
          0., 255., 255., 0., 0., 0., 255., 0., 0., 0., 0., 0., 0., 0.,
          0., 0., 0., 255., 255., 0., 223., 223., 255., 0., 0., 0., 0.,
          0., 0., 0., 0., 0., 0., 255., 255., 255., 255., 255., 255., 0.,
          0., 0., 0., 0., 0., 0., 0., 0., 0., 0., 255., 255., 255., 255.,
          255., 0., 0., 0., 0., 0., 0. ]
      - [ 0., 0., 0., 0., 0., 0., 0., 0., 255., 0., 0., 0., 0., 0., 0.,
          0., 0., 0., 0., 0., 0., 0., 0., 0., 255., 0., 0., 0., 0., 0.,
          0., 0., 0., 0., 0., 0., 0., 0., 0., 64., 255., 0., 0., 0., 0.,
          0., 0., 0., 0., 0., 0., 0., 0., 0., 0., 64., 255., 0., 0., 0.,
          0., 0., 0., 0., 0., 0., 0., 0., 0., 0., 0., 255., 255., 0., 0.,
          0., 0., 0., 0., 0., 0., 0., 0., 0., 0., 0., 0., 255., 255., 0.,
          0., 0., 0., 0., 0., 0., 0., 0., 0., 0., 0., 0., 0., 255., 255.,
          0., 0., 0., 0., 0., 0., 0., 0., 0., 0., 0., 0., 0., 0., 0.,
          255., 0., 0., 0., 0., 0., 0., 0., 0., 0., 0., 0., 0., 0., 0.,
          0., 255., 0., 0., 0., 0., 0., 0., 0., 0., 0., 0., 0., 0., 0.,
          0., 255., 255., 0., 0., 0., 0., 0., 0., 0., 0., 0., 0., 0., 0.,
          0., 0., 255., 255., 0., 0., 0., 0., 0., 0., 0., 0., 0., 0., 0.,
          0., 0., 0., 255., 255., 0., 0., 0., 0., 0., 0., 0., 0., 0., 0.,
          0., 0., 0., 0., 255., 64., 0., 0., 0., 0., 0., 0., 0., 0., 0.,
          0., 0., 0., 0., 0., 255., 64., 0., 0., 0., 0., 0., 0., 0., 0.,
          0., 0., 0., 0., 0., 0., 255., 0., 0., 0., 0., 0., 0., 0., 0.,
          0., 0., 0., 0., 0., 0., 0., 64., 0., 0., 0., 0., 0., 0., 0.,
          0. ]
      - [ 0., 0., 0., 0., 0., 0., 0., 0., 255., 0., 0., 0., 0., 0., 0.,
          0., 0., 0., 0., 0., 0., 0., 0., 0., 255., 0., 0., 0., 0., 0.,
          0., 0., 0., 0., 0., 0., 0., 0., 0., 0., 255., 0., 0., 0., 0.,
          0., 0., 0., 0., 0., 0., 0., 0., 0., 0., 64., 255., 0., 0., 0.,
          0., 0., 0., 0., 0., 0., 0., 0., 0., 0., 0., 255., 255., 0., 0.,
          0., 0., 0., 0., 0., 0., 0., 0., 0., 0., 0., 0., 255., 255., 0.,
          0., 0., 0., 0., 0., 0., 0., 0., 0., 0., 0., 0., 0., 64., 255.,
          0., 0., 0., 0., 0., 0., 0., 0., 0., 0., 0., 0., 0., 0., 0.,
          255., 0., 0., 0., 0., 0., 0., 0., 0., 0., 0., 0., 0., 0., 0.,
          30., 255., 0., 0., 0., 0., 0., 0., 0., 0., 0., 0., 0., 0., 0.,
          0., 255., 255., 0., 0., 0., 0., 0., 0., 0., 0., 0., 0., 0., 0.,
          0., 0., 255., 255., 0., 0., 0., 0., 0., 0., 0., 0., 0., 0., 0.,
          0., 0., 0., 255., 255., 0., 0., 0., 0., 0., 0., 0., 0., 0., 0.,
          0., 0., 0., 0., 255., 64., 0., 0., 0., 0., 0., 0., 0., 0., 0.,
          0., 0., 0., 0., 0., 255., 64., 0., 0., 0., 0., 0., 0., 0., 0.,
          0., 0., 0., 0., 0., 0., 255., 0., 0., 0., 0., 0., 0., 0., 0.,
          0., 0., 0., 0., 0., 0., 0., 62., 0., 0., 0., 0., 0., 0., 0.,
          0. ]
      - [ 0., 0., 0., 0., 0., 0., 0., 0., 255., 0., 0., 0., 0., 0., 0.,
          0., 0., 0., 0., 0., 0., 0., 0., 0., 255., 0., 0., 0., 0., 0.,
          0., 0., 0., 0., 0., 0., 0., 0., 0., 0., 255., 0., 0., 0., 0.,
          0., 0., 0., 0., 0., 0., 0., 0., 0., 0., 64., 255., 0., 0., 0.,
          0., 0., 0., 0., 0., 0., 0., 0., 0., 0., 0., 64., 255., 0., 0.,
          0., 0., 0., 0., 0., 0., 0., 0., 0., 0., 0., 0., 255., 255., 0.,
